3448 100
by -0.04370928 0.14798267 0.07677544 0.1469215 -0.024375722 0.07179726 0.14740501 0.14703496 -0.096704274 0.13027622 -0.07958132 0.17562585 0.11521027 -0.32741886 0.16505536 0.3773868 0.054886032 0.06598242 -0.17888801 0.19078253 -0.22643921 0.061671622 0.15760936 -0.077974275 -0.33081976 0.1507704 0.12702763 -0.32305717 -0.18251725 0.017763015 -0.182902 0.24590732 0.18017033 0.09339523 0.25059825 -0.07110215 -0.13400063 -0.2786512 -0.3428959 -0.072236605 0.11121205 0.13348547 0.34887123 -0.10367845 -0.2767407 0.04727034 0.12444106 0.10655996 -0.2943301 -0.1462305 -0.39065176 -0.13308334 -0.101368725 0.07025302 0.050176367 0.2771225 -0.16610165 0.08467565 -0.3205099 0.0786362 0.30225652 -0.043122247 0.046474174 0.27833757 -0.028443364 0.14224474 -0.2012849 0.20817737 0.020037109 0.237799 0.025272453 0.06601052 0.2337113 0.080050424 0.03991396 -0.12922621 -0.15489462 -0.25941142 -0.10570077 0.3085234 0.02547805 0.058184765 0.075770214 -0.081828624 0.14395316 0.11825892 -0.30373833 0.12315641 0.07770229 0.33638805 -0.09033101 -0.21563621 0.35784593 -0.1937453 -0.005540467 0.007683045 0.030864349 0.2681553 0.098117985 0.26030242
AT -0.014360859 0.030859051 0.013231331 0.014755332 -0.0009554649 0.010346343 0.0093110865 0.025149608 -0.0027631177 0.008160737 -0.008936481 0.005913942 0.015372586 -0.02356009 0.01739717 0.03648121 -0.0033291664 0.0033313408 -0.020927276 0.005458319 -0.016473701 0.013915741 0.028315118 -0.0023452486 -0.018853705 0.019038036 0.018481018 -0.029330637 -0.012237735 -0.0035947696 -0.020968903 0.016452394 0.017400293 0.016142037 0.02560104 -0.0039149243 -0.018544465 -0.023314407 -0.018892864 -0.0090794135 0.01881115 0.019125398 0.03257823 -0.016904162 -0.023837775 -0.00074314536 0.007296223 0.014716953 -0.021921588 -0.011994455 -0.029028917 -0.0026792046 -0.011805703 0.0006770484 -0.0031582594 0.014568694 -0.018702287 -0.00065327785 -0.025452824 -0.00277115 0.017374145 -0.013138558 -0.008054524 0.028430663 -0.0014895657 0.0030207385 -0.009070565 0.0066483775 0.010181044 0.008569825 -0.0026624717 0.0029463337 0.024010764 0.011980269 0.0006203877 -0.0036836255 -0.018015554 -0.01266001 -0.003645014 0.023355782 -0.0018743818 0.0018284398 0.008602867 -0.016996762 0.021059694 0.0074163345 -0.03250184 0.016418934 0.0028570786 0.026400529 -0.01464024 -0.034360345 0.021297641 -0.021953903 -0.011669032 -0.00049287925 0.004867648 0.022778379 0.017087147 0.01217499
THE -0.026545763 0.09571544 0.07292456 0.054646287 -0.029641757 0.020315485 0.034341328 0.08051504 -0.02610304 0.045178067 -0.0148685 0.043690044 0.041489143 -0.11209267 0.05417305 0.13544121 0.0070938673 0.018433204 -0.066898406 0.045414276 -0.08291453 0.054931264 0.08669723 0.00053414045 -0.09792964 0.07888827 0.05529893 -0.108065136 -0.07006559 -0.002506285 -0.08761137 0.06689584 0.08643504 0.05109792 0.12091997 -0.03365194 -0.08300823 -0.08850314 -0.092458144 -0.046384234 0.07884226 0.07603905 0.13162184 -0.056318462 -0.108622804 0.010066974 0.029982846 0.035763714 -0.084090546 -0.055964198 -0.12581956 -0.013871257 -0.062288627 0.014354132 -0.0062387963 0.07642727 -0.0665128 0.020270802 -0.07911129 0.009059439 0.09683756 -0.04672969 0.0017370569 0.104879975 0.0069823237 0.032162342 -0.065457724 0.0503562 0.002860345 0.075941294 -0.00593825 -0.0074564256 0.0904255 0.046677016 -0.019502165 -0.0072973096 -0.07178765 -0.082763046 -0.02811567 0.099528044 0.019243026 0.019979345 0.028879268 -0.059434738 0.07876646 0.025239218 -0.104433276 0.0615718 0.04360835 0.12581 -0.037147 -0.12780431 0.105785854 -0.08746678 -0.028616527 -0.0074116304 0.017131904 0.09699494 0.060013518 0.0663058
of 0.019425584 0.062088814 -0.0035117574 -0.011325851 -0.27759662 -0.061466485 0.32961628 0.14726815 -0.07525343 0.2043804 -0.29290196 0.26183715 0.15522112 -0.070304364 0.20590924 0.27741715 0.20423253 0.10866988 -0.010219144 0.2689811 -0.60828185 -0.04741832 0.27705634 -0.048472013 -0.1748928 -0.0018269246 0.16440745 -0.41108462 -0.2572496 0.03183841 -0.3987447 0.54369986 0.22594975 -0.14641397 0.15099062 -0.124933854 -0.38587448 -0.3326655 -0.5250435 -0.017013403 0.07917848 -0.1946194 0.6376839 -0.09997046 -0.3591464 0.070305884 -0.061783243 -0.067555204 -0.41778654 -0.058581904 -0.6577982 -0.28018713 0.15957873 -0.0016911408 0.3451633 0.48426092 -0.043229192 0.15066858 -0.33314842 0.22004905 0.35576156 -0.06733377 0.19080313 0.09442338 -0.1473113 0.038210664 -0.6219257 0.2852456 0.2488706 0.38641632 -0.18353412 0.007552526 0.25301215 0.28612804 0.109399706 -0.30543512 -0.07696126 -0.19983014 0.10654112 0.35686597 0.1349691 0.2933086 0.18051147 0.035629816 0.07677972 0.30177823 -0.12704921 0.124538496 0.07507525 0.38089433 -0.31491 0.042216666 0.50883025 -0.07490408 0.40701863 -0.08342184 0.10500838 0.6062769 0.054429043 0.30565262
the 0.44949847 -0.0684191 0.1775854 -0.12943545 0.11006428 -0.15544394 0.04794539 0.30725345 -0.041718144 0.22009572 -0.04235976 0.31371316 -0.017887693 -0.32791167 -0.2607479 0.008747236 0.057579312 0.0047419746 -0.24896824 0.18538421 -0.40333015 0.01708362 0.17049251 -0.0033856689 -0.047060143 0.46792862 0.081194684 -0.08634269 -0.45327532 0.28621104 -0.18784021 0.06340533 0.48410538 0.10280759 0.4166042 -0.1795686 -0.42763096 -0.21167581 -0.4396983 -0.30472896 0.32599464 0.37239498 0.25549993 -0.0067451126 -0.3621542 0.30213448 -0.12101443 -0.00410293 -0.2336801 0.039552625 -0.45899728 -0.3161804 -0.48979136 0.27046716 0.092410885 0.49725088 0.07512947 0.35213476 -0.018355288 0.496125 0.35253572 -0.29825404 -0.09799932 0.07525308 0.04753423 0.35116154 -0.6060403 0.28358072 -0.1834195 0.65870214 0.076319054 -0.61307347 0.40007493 0.17476575 -0.30492404 -0.08422293 0.06162676 -0.4485384 -0.23782009 0.466057 0.10224735 0.2652943 -0.18997309 -0.28057018 0.3600218 0.18859267 0.093182154 0.31244633 0.28559333 0.36609012 -0.23354186 -0.229574 0.45872462 -0.23788394 -0.0026359705 0.014931541 0.5396327 0.24455258 -0.009460384 0.1497142
Western 0.00078053307 0.00083313114 0.004892265 0.005976053 0.00327948 -0.0019907688 -0.00082286063 0.0010386469 0.0038564303 -0.0004580823 0.0018775073 0.0029805852 0.005768881 -0.005816029 0.0057468163 0.009063678 -0.0020812172 0.0043771737 -0.006450176 -0.002670035 -0.008529394 -0.000834981 0.008848292 0.003388482 -0.004401384 -0.0014630181 0.005128942 -0.006854488 0.0005563356 0.00052095787 -0.009001316 0.006878195 0.0031535595 0.00067871617 -0.0006485164 -0.0044787843 0.0006830311 0.0005063691 -0.0016281684 -0.0039083655 0.004108562 0.0044843336 0.007153029 -0.005661204 -0.003061632 -0.002133342 0.0036386333 0.0043377723 -0.0009306694 -0.0016770521 -0.00947919 -0.0010122573 0.0007416071 0.003541745 0.0001668846 0.0055854786 0.0019937234 0.0039485763 -0.005651198 0.0050486177 0.008567754 -0.003573696 0.0015346723 0.0009497724 0.0030057766 0.0052182525 -0.0009834825 -0.00019057615 -0.0045057745 0.007978285 0.0011416842 -0.0016667894 0.0034796959 0.005846761 0.0017282129 0.003694655 -0.002070486 -0.0062040607 -0.0037481263 0.0056584934 0.007176202 -0.00030623996 0.0022672056 -0.0057521556 0.0022652794 0.0005516979 0.001035791 0.0063997423 -0.0013148397 0.004018578 -0.0060237306 -0.0034860831 0.0049375817 -0.005226576 -0.0044623544 0.0011007353 -0.0008058873 0.0045616543 0.0067141224 -0.00094479695
was -0.03984099 0.26740053 -0.012889563 0.049784202 -0.2534162 0.091822505 0.16831121 0.59659517 0.24833778 -0.3065495 -0.42464265 0.0091055 0.25548732 -0.015027077 0.3622872 0.32777625 -0.26378906 -0.13569403 -0.47787258 -0.04826538 -0.06354607 0.23032591 0.51078343 0.14945069 -0.2552746 0.4449107 0.22757351 -0.23672722 -0.42239237 0.32903254 0.0348782 0.21558307 0.034916304 0.41295546 0.45144498 0.052648965 -0.2593345 -0.32018209 -0.64944106 -0.35285383 0.31462556 -0.011462528 0.13431466 0.021378953 -0.62723476 -0.010395978 0.20763129 -0.15184759 -0.3076414 0.24747238 -0.6615685 -0.097141825 -0.22713171 -0.14722463 0.49631497 0.45971963 0.28214097 0.3095969 -0.23376815 0.2247422 -0.07721718 -0.21194278 -0.13922034 0.13657598 -0.3749501 0.04587627 -0.22740023 0.08470496 0.38397843 0.53656673 -0.4553462 0.14040057 0.19644782 0.26586035 0.14383058 -0.13404 0.06399904 -0.17502047 -0.14547567 0.07291271 -0.39097744 -0.15680033 0.3491576 0.18274458 -0.09099705 0.13695139 -0.3343581 -0.050633878 -0.16080728 0.22984351 -0.087740935 -0.31066254 0.66242826 -0.07358771 -0.2104323 -0.34068987 -0.30518505 0.935722 0.18474576 -0.1851852
still -0.11190956 0.26758942 0.13846615 0.15738267 0.029472938 0.08582934 0.05323595 0.24234767 -0.009456486 0.021275535 -0.06292355 0.062619604 0.14721109 -0.34480038 0.20926179 0.402066 -0.07533075 0.031347062 -0.23659818 0.0478971 -0.09513629 0.18348692 0.27802184 -0.04824612 -0.29709956 0.29339522 0.1447527 -0.26581857 -0.15477274 0.07562576 -0.17521638 0.22300902 0.17752507 0.19254677 0.30545396 -0.09690572 -0.17614724 -0.33028457 -0.34851393 -0.14150813 0.14931267 0.22067323 0.39926735 -0.105765745 -0.35023624 -0.08984208 0.20694625 0.122527 -0.21147293 -0.08958738 -0.38298738 -0.032925855 -0.20916656 0.006993422 0.031880047 0.1750722 -0.18624352 0.007990819 -0.30818772 0.04041454 0.23630898 -0.11482996 -0.123131014 0.36992133 0.007993421 0.08168086 -0.08348257 0.13916914 0.044800967 0.19362444 -0.026350163 0.056986827 0.29113823 0.06037848 -0.020382896 -0.103599556 -0.21714875 -0.21782748 -0.084832884 0.25635254 0.012625075 -0.03665057 0.113034554 -0.1589108 0.180609 0.061592814 -0.38039637 0.13995054 0.053016573 0.34426978 -0.10267759 -0.38651904 0.28411737 -0.20855972 -0.17237413 -0.041246675 0.01087182 0.29615384 0.26157048 0.14001204
American -0.042279817 0.1325564 0.08380651 0.090354525 -0.03355929 0.04874787 0.04654188 0.10726255 -0.027240269 0.053982083 -0.030627267 0.051771287 0.06553159 -0.14794599 0.09085143 0.19468401 -0.0053780135 0.038501836 -0.09966258 0.053613376 -0.11306534 0.08308352 0.14969538 -0.0008844363 -0.13035548 0.10487506 0.06965299 -0.16698702 -0.09485013 0.013407907 -0.123318814 0.12662534 0.11043917 0.075939104 0.1536103 -0.048833176 -0.12156634 -0.15197548 -0.16474222 -0.06182717 0.08430176 0.09394213 0.22532976 -0.06906626 -0.17503558 -0.0070299394 0.07009381 0.06820104 -0.11865935 -0.0739542 -0.20576811 -0.022948999 -0.07473353 0.020489106 0.020493824 0.11300394 -0.08297192 0.02126436 -0.1442522 0.013757354 0.14653653 -0.054016642 -0.022643186 0.17027424 0.0013963834 0.04494245 -0.080061205 0.08187446 0.01761073 0.09932576 0.0047834916 0.014025198 0.15570734 0.04500289 -0.025270153 -0.040666856 -0.10897039 -0.109552555 -0.019038677 0.13754125 0.034650333 0.021900779 0.05332531 -0.070418306 0.101036176 0.039208565 -0.16671926 0.09274302 0.0456833 0.18707275 -0.06262803 -0.18777482 0.16420248 -0.11084342 -0.039810453 -0.011400239 0.010921707 0.15939347 0.10503279 0.10472263
The -0.034188155 0.11875404 0.029191116 -0.20083797 0.07799344 -0.14460965 0.07781244 0.1993554 0.048464146 0.03740655 -0.044988293 0.079064064 0.023071663 -0.36299238 0.15194449 0.41416955 0.046133116 0.00932802 -0.17756926 0.046665132 -0.18800505 -0.055799473 0.21940203 -0.1905227 -0.29674625 0.2627663 0.22229673 -0.23294756 0.024467189 0.20455046 -0.3748622 0.36674213 0.18246885 0.006117879 0.24789043 -0.18619223 -0.23916101 -0.3079249 -0.5609514 -0.07960915 0.17724681 0.076922506 0.4427323 -0.18120241 -0.31210098 -0.09460921 -0.022254407 0.10540408 -0.31623262 -0.06877213 -0.40192568 -0.1453007 -0.11030982 0.01566591 0.027322935 0.26770434 -0.26072654 -0.007968776 -0.2668578 0.13812594 0.28194967 -0.17165247 -0.10318383 0.15957642 0.009937744 0.048240457 -0.2880708 0.24612184 0.053197302 0.16139805 -0.040489968 0.024678329 0.19498207 0.15250131 -0.010358307 -0.17189226 -0.14243047 -0.18014237 -0.13271113 0.33572853 0.0070585404 0.08041294 0.086284265 -0.17376368 0.046961337 0.23503348 -0.26547363 0.26846504 0.105225466 0.3212334 -0.18833429 -0.14207911 0.25834575 -0.21771017 -0.117872685 -0.065260656 0.13195893 0.3635873 0.20883596 0.118998185
myth 0.0014213691 -0.0013967118 -0.0019139713 -0.0018961912 -0.0042888615 0.002706995 -0.004599108 -0.0037379474 0.0009914524 -0.0022958992 -0.0017238989 -0.0018471732 -0.0046695736 -0.005030148 0.0050628292 -7.253867e-05 0.0010820362 4.496399e-05 0.0008184811 -0.0029909096 -0.0029444755 -0.0030055332 0.0025407826 0.002129614 -0.005509939 0.0026217238 0.0020201996 0.0006571863 0.0034219148 0.0026327302 0.0024496466 0.005204598 -0.0026054964 -0.0024834622 -0.0012878869 -0.0019374174 -0.0047995495 -0.002785448 -0.0039815754 0.0012739783 -0.0018535478 -0.002517903 -0.0010714101 -0.0025120105 0.00026776062 0.0048211706 -0.002643562 -0.0017277217 0.004502569 0.00012610054 0.00093685323 0.0023222014 0.0021979692 -0.002722095 -0.00054710207 -0.0040101553 0.000246303 -0.000358404 -0.0017277104 0.0028904718 -0.0028713474 0.00062001735 -0.00180656 0.0008926509 2.470738e-05 0.0028093385 0.0033258768 0.0013203924 0.00407517 0.00090545317 0.0040512783 0.0044924724 0.00021326318 0.0006304089 -0.004780452 -0.0040878817 -0.0010277112 -0.0003069281 0.0047822236 0.0036415407 -0.00096619717 0.004181758 -0.0032958619 0.0036005564 -0.0039691357 0.00052388624 -0.00077206513 -0.0021643008 0.0046148943 -0.0027027659 0.0039307163 -0.002711494 -0.0028239568 0.001489039 -0.0046663033 -0.0037182726 0.0009336773 -0.0012867522 0.0020778289 0.0031333424
a -0.123336904 0.12893121 0.00962157 0.0793684 -0.056777615 0.013400139 0.06504768 0.15067199 -0.00853413 -0.31409243 0.106329836 -0.20072316 -0.0864569 0.04200763 0.24201557 0.30932742 -0.043116182 0.34694234 -0.2276005 -0.11929605 -0.14134338 0.020920753 0.5248254 0.14893308 -0.21532857 0.19385745 0.2348664 -0.027883189 0.050468232 0.2662918 -0.47113496 0.5261434 0.40841192 0.36933106 0.09859256 -0.41509536 -0.2847926 -0.050768286 -0.6153376 -0.015462706 -0.0351932 0.17135864 0.5010537 -0.30468208 -0.19016239 -0.22006051 0.015918018 0.40254012 -0.35965472 0.31043452 -0.8584105 0.11441319 -0.38537765 0.20028745 0.07741825 0.19888684 -0.1008656 -0.15626454 -0.32695678 0.074887924 0.29719895 -0.22089915 -0.018961716 0.42278814 0.022952635 -0.39281785 -0.18006311 0.25513768 0.2770388 -0.0016098302 0.08110127 0.22397514 0.5481015 -0.1042277 -0.09916603 -0.21580976 -0.11899809 0.11215199 0.20943466 -0.17124172 0.17427357 0.3268811 0.14042766 0.080707 -0.25363106 0.10750381 -0.24896051 0.34638754 -0.49143738 0.32069612 -0.23715228 -0.35957092 0.38511086 -0.017307283 -0.4055833 0.06672718 -0.10402427 0.77060694 0.3816759 0.20822564
from -0.04000189 0.17694633 0.16084269 0.121283054 -0.08112951 0.018546598 0.1727101 0.12797214 -0.08618273 0.21229939 -0.12714696 0.2101125 0.1396518 -0.3775962 0.19017278 0.462919 0.119340815 0.043687023 -0.17386307 0.26394933 -0.3201681 0.0766825 0.055386122 -0.079630725 -0.39116377 0.08874929 0.1628202 -0.3982439 -0.23911028 -0.008487849 -0.21994048 0.22957315 0.22916909 0.027094375 0.26980335 -0.04085694 -0.12055703 -0.23497267 -0.3138188 -0.030431433 0.18835549 0.1277444 0.30426043 -0.16487195 -0.26263994 0.122604795 0.015827978 0.10044768 -0.37334245 -0.22550589 -0.3703738 -0.14390853 -0.02874979 0.07025754 0.015555135 0.31263295 -0.22002937 0.10731193 -0.28202897 0.083376475 0.33896303 0.032547656 0.1774411 0.21325943 -0.06846547 0.15435198 -0.2495586 0.2137199 0.061788753 0.2059292 0.036449574 0.058015622 0.13098156 0.17257914 0.076644205 -0.07221154 -0.14509155 -0.28888246 -0.118623026 0.32694638 -0.01945549 0.12871674 0.07121456 -0.06832645 0.15857828 0.15050785 -0.2976171 0.12745266 0.13214268 0.33326635 -0.10557394 -0.14649776 0.3417073 -0.2481916 0.04213305 -0.037748184 0.05360381 0.2018512 0.034021094 0.2524062
sea -0.0060710963 0.055684544 0.043194693 0.025406305 -0.009589645 0.011169861 0.018631337 0.040310036 -0.013130181 0.023887206 -0.0050621694 0.02539792 0.01584834 -0.07250908 0.025514714 0.0734713 -3.835231e-05 0.009509833 -0.042775936 0.024181979 -0.044389974 0.028160684 0.044576224 -0.005565374 -0.05275593 0.049905457 0.035663635 -0.05497242 -0.03611641 0.0069131576 -0.04582582 0.038386233 0.048874978 0.02844933 0.071019016 -0.014540242 -0.04649902 -0.051836606 -0.05562803 -0.028966274 0.044652004 0.04729451 0.07524998 -0.024478124 -0.064774804 -0.00089961354 0.012191625 0.017985899 -0.047549516 -0.03152344 -0.06932647 -0.012635989 -0.04102404 0.006993175 -0.009624768 0.036426045 -0.038388055 0.010486022 -0.041076906 0.011398492 0.057887293 -0.030762805 -0.00031892216 0.06421685 0.007896197 0.02038446 -0.0335486 0.034253754 -0.0029681043 0.033585627 0.004405794 -0.0037925846 0.048328582 0.026526798 -0.016054837 -0.00023054364 -0.034807004 -0.04635719 -0.02145072 0.058404587 0.008791159 0.013295723 0.014286012 -0.04039359 0.04569797 0.020866541 -0.050675552 0.032397594 0.028938508 0.07294991 -0.020023113 -0.07060498 0.053312488 -0.053174 -0.02078241 -0.002866243 0.018757917 0.042672776 0.038566988 0.032815963
to -0.17473486 0.11156124 0.039678343 0.367722 -0.45553625 0.12898622 0.23124026 0.16439241 -0.35749072 0.2601164 0.020734636 0.32142362 -0.15412743 -0.79349977 0.110762976 0.8378478 0.35631543 0.09845716 -0.2283876 0.55404085 -0.21814507 -0.05884666 0.23977666 -0.20833303 -0.69671595 0.12582366 0.55620295 -0.56369764 -0.18743385 -0.53934854 -0.02641303 -0.098944046 0.0056423866 0.46721756 0.53143996 -0.09215591 0.025033293 0.02478771 -0.13236202 0.005321209 0.38567993 0.20321238 -0.25826266 -0.10618621 0.15410568 0.036238845 -0.029022258 0.18032636 -0.29034287 -0.3791654 -0.07259377 0.06566783 -0.31364977 0.39188823 -0.52130246 0.2535744 -0.37887877 0.21495746 -0.039594986 -0.19207507 0.17881995 -0.24240509 0.44125146 0.60840434 0.015846068 0.22115451 0.023646543 0.516845 -0.32587364 -0.066881225 0.06252628 0.55002326 -0.012293215 -0.13972624 0.051551253 0.539683 -0.17278679 -0.07464557 -0.46096426 0.36413422 0.053902496 -0.091297746 -0.18501969 0.009432041 0.067742825 -0.05623426 -0.3163606 0.106551476 0.28364518 0.31858674 0.39678046 -0.25962248 0.43344033 -0.43541119 -0.3363654 0.26194417 -0.16666052 0.24182935 0.13878618 0.3491945
shining -0.02504054 0.052331872 0.03348483 0.029654885 -0.014037083 0.014483942 0.015895547 0.035756856 -0.0070366226 0.016655955 -0.005152538 0.007506817 0.018495506 -0.050029468 0.041649114 0.07380295 -0.006812148 0.013737412 -0.03707318 0.02065839 -0.037581008 0.035754025 0.053243455 0.0010639005 -0.04641598 0.04026255 0.02945 -0.05425617 -0.031423293 0.0023379463 -0.04743575 0.0440593 0.03830283 0.025086123 0.056580823 -0.0127068795 -0.04246411 -0.050096855 -0.051162157 -0.021223627 0.028706023 0.0318709 0.07558811 -0.0297619 -0.060274627 -0.011734412 0.01791631 0.02220891 -0.042747017 -0.026451947 -0.0635315 -0.004850326 -0.028808432 0.0059485137 -0.00112533 0.028876223 -0.038719915 0.006324035 -0.053564385 -0.0039591845 0.04535369 -0.019013027 -0.0073213344 0.067031614 0.0063684885 0.0034946804 -0.021146165 0.018247198 0.008503056 0.024000594 0.002021635 0.007735414 0.052518226 0.015826404 -0.00543956 -0.007471357 -0.043016303 -0.02944269 -0.0022863725 0.047841586 0.005787856 0.0005549412 0.018634481 -0.025617504 0.032098636 0.014116141 -0.060197335 0.031521056 0.014904078 0.05942846 -0.023102667 -0.06478663 0.04409444 -0.045882262 -0.019451315 -0.0054221707 -0.00476657 0.054241166 0.044734 0.032639083
behind -0.047072463 0.2250698 0.17434551 0.15930241 -0.049208406 0.06746745 0.09400286 0.18695615 -0.06012477 0.1234634 -0.06789659 0.13214606 0.123427026 -0.31181923 0.15281998 0.36267737 0.0139011135 0.046646845 -0.18354845 0.14012906 -0.22270331 0.14391147 0.18234755 -0.01736491 -0.26227415 0.18330152 0.13980003 -0.2875802 -0.20909336 -0.0028254734 -0.19300061 0.16382866 0.21431161 0.12159905 0.29541382 -0.0604656 -0.17539145 -0.24103692 -0.24203026 -0.103939 0.18861508 0.20672427 0.31990173 -0.123196036 -0.27971265 0.041725237 0.09242101 0.09110761 -0.22514556 -0.15393694 -0.3346566 -0.05739924 -0.14240381 0.04721574 0.0058267238 0.20801573 -0.16739994 0.074103974 -0.22358723 0.043055434 0.2588336 -0.07086488 0.027523635 0.2696374 -0.0016324554 0.1106963 -0.15656997 0.13830724 0.027005017 0.20209447 0.01119035 -0.0050095622 0.22293435 0.115301274 -0.030766059 -0.036301583 -0.1709089 -0.23135339 -0.076461814 0.27362803 0.017285055 0.047750205 0.058328863 -0.13186228 0.20834725 0.07471929 -0.268637 0.13665466 0.12082627 0.31555206 -0.082316115 -0.2995813 0.2776528 -0.23320965 -0.053019196 -0.03237671 0.04731425 0.20804736 0.1373728 0.17351733
had -0.2389401 0.34141305 0.3176314 0.3689524 -0.15546742 0.06414778 0.25439516 0.4567772 -0.069085866 -0.24102424 -0.11737163 0.33822832 0.34566948 -0.2662846 0.43245533 0.6798062 0.05221004 0.16934097 -0.26897445 -0.018320447 -0.0950172 0.24817345 0.14495787 0.14046408 -0.64299554 0.5332559 0.18353857 -0.08907279 -0.23745778 0.40257317 -0.056607857 0.2041055 0.38132948 0.51103187 0.63898015 0.23355122 -0.18558376 0.09247314 0.0058715697 -0.23453075 0.22438559 0.52792215 -0.06869405 -0.30938786 -0.13404967 -0.0061386926 0.039055478 -0.13285264 -0.37023237 0.016500948 -0.47933066 0.22352348 -0.39334622 0.020502618 0.24244262 0.07482202 -0.23462974 0.12270503 -0.39955294 0.383548 0.2208805 0.011857198 0.27026132 0.19315815 -0.18049338 0.067780465 -0.037181422 -0.09461665 0.18006623 0.27631155 -0.08500753 0.054967985 0.15906301 0.48234797 0.30952677 -0.13444723 0.08570873 -0.11757346 -0.17950965 0.037808016 -0.5748702 -0.11818899 0.32980362 -0.17509584 0.094618075 -0.0029187172 -0.515067 0.10597746 -0.11898594 0.19390018 0.01187872 -0.5558703 0.27856517 -0.41175917 -0.24360001 0.012284143 -0.26425117 0.1848867 -0.030695267 -0.033730544
our -0.08591149 0.29216516 0.22006258 0.12536547 -0.11701606 0.056111105 0.04509004 0.23613955 -0.05220273 0.08852339 0.006664384 0.040767923 0.061473608 -0.25166008 0.14051734 0.35528857 0.01660921 0.08162994 -0.15152211 0.059862785 -0.22085492 0.1709518 0.32309675 0.028509667 -0.16827732 0.1846412 0.20729513 -0.250119 -0.12558617 -0.060134638 -0.313247 0.17427297 0.23468551 0.14790791 0.30221203 -0.12856859 -0.27235773 -0.21070676 -0.19002846 -0.117289595 0.22682162 0.21296783 0.37151223 -0.17493561 -0.25792664 -0.040892366 0.035009332 0.124337204 -0.16198345 -0.13051444 -0.32225507 0.063686274 -0.16872197 0.050182447 -0.07850526 0.13412902 -0.20896281 -0.0062390347 -0.15603891 -0.047779337 0.22723334 -0.17542744 -0.004020053 0.33061054 0.06346801 0.0011208146 -0.1188265 0.11052956 0.029596118 0.10542426 -0.017295083 -0.0095982775 0.26556167 0.097554855 -0.12841795 0.055355247 -0.23220709 -0.127677 -0.0072021824 0.2182716 0.10594147 0.06685817 0.03360074 -0.18439047 0.21647818 0.042388484 -0.21978916 0.19011131 0.1212119 0.30298302 -0.09063598 -0.40018037 0.17454796 -0.252375 -0.12854429 -0.035158515 0.049733464 0.26737043 0.2502739 0.11355943
national -0.012956923 0.04004722 0.028647603 0.032215312 -0.007613868 0.008667541 0.015455702 0.034346174 -0.006661574 0.020928372 -0.008747885 0.017660292 0.01796241 -0.046603896 0.021661226 0.054852832 0.0021111583 0.012103396 -0.02772505 0.021551654 -0.03203459 0.021540873 0.034924068 0.00013657282 -0.041438583 0.03146559 0.021653717 -0.04985483 -0.03353163 0.0053159855 -0.029713085 0.030836044 0.03462721 0.022135332 0.04208886 -0.0125198085 -0.029144874 -0.03565076 -0.0365059 -0.021493306 0.023904404 0.024160318 0.05750493 -0.021571355 -0.05099661 0.004302797 0.016940271 0.017656218 -0.038318634 -0.018502712 -0.04898013 -0.0040168683 -0.01731488 -0.0002567888 0.0043077436 0.026876112 -0.018294226 0.014065436 -0.032917347 0.006572116 0.038737733 -0.0069390377 0.0050973217 0.047149237 -0.005299599 0.013949459 -0.019237641 0.015918804 0.004347353 0.029676484 -0.001054344 -0.0026213017 0.03378206 0.021674696 -0.004846771 -0.007063313 -0.02677129 -0.03751573 -0.011827865 0.041927096 -0.0023304909 0.005222641 0.012345784 -0.015697397 0.028424382 0.0065570255 -0.04839107 0.018526075 0.01021897 0.049819272 -0.017434945 -0.045683935 0.04445644 -0.032138232 -0.009705218 -0.0077891597 0.0016248705 0.042213112 0.028652888 0.02049815
for -0.13928877 0.22395937 0.14832239 0.31141534 -0.25256214 0.15405655 0.16132551 0.11838545 -0.14574659 0.2004144 -0.1268273 0.18407084 0.118676014 -0.3227545 0.21003123 0.45345947 0.11665394 0.10387201 -0.17258568 0.32696483 -0.30307615 0.054819822 0.19955605 0.0017052654 -0.3410533 0.034243904 0.13794634 -0.49207073 -0.2547232 -0.15498511 -0.17884049 0.20410955 0.13387012 0.13459745 0.2735024 -0.00999977 -0.09798676 -0.21403947 -0.25250307 -0.017898178 0.1418151 0.06512571 0.2782519 -0.12331756 -0.25018364 0.10673786 0.09096842 0.16553319 -0.32767624 -0.25539944 -0.3331178 -0.07080879 -0.009172396 0.10085433 0.013287347 0.26220542 -0.13684843 0.10457686 -0.28086856 -0.047729183 0.27689755 -0.010305141 0.22322495 0.31758222 -0.080177166 0.090236425 -0.12250663 0.194158 0.03240414 0.14551654 0.03522838 0.22089171 0.15348649 0.050311387 0.12168201 0.019486329 -0.18584123 -0.20373419 -0.07020904 0.2511677 0.005437887 0.025022566 0.09048846 0.056199588 0.08012013 0.065846555 -0.35988608 0.10365254 0.08423415 0.3381185 -0.0076482585 -0.21009162 0.42601052 -0.21834396 0.025366137 -0.0029152583 -0.14788087 0.31231347 0.046083163 0.31509772
From -0.044711478 0.13461863 0.09369067 0.09998177 -0.041224662 0.04758535 0.033620074 0.104711905 -0.027671019 0.047204774 -0.026165562 0.053567976 0.062552586 -0.14113483 0.0826077 0.1749946 -0.0049703177 0.026296047 -0.09098159 0.05305659 -0.09400168 0.08653021 0.12812686 0.00969127 -0.11559581 0.09939504 0.06600023 -0.13780464 -0.09738797 -0.011776359 -0.091174625 0.07222603 0.09632425 0.082909964 0.14803518 -0.033174857 -0.10130432 -0.1127225 -0.101152815 -0.054184474 0.094389535 0.103406884 0.15783745 -0.059976522 -0.13615577 0.002342517 0.05660385 0.045112517 -0.09337463 -0.07136796 -0.15560767 0.0019546994 -0.08169995 0.019232338 -0.0024412863 0.075017504 -0.083366595 0.023910884 -0.10597992 0.0071441354 0.11055884 -0.057030547 -0.002857986 0.15302265 0.009111887 0.042105254 -0.04793106 0.053453404 0.011599227 0.08121914 -0.0026661472 0.0019415215 0.117547765 0.046163835 -0.026644383 -0.001583314 -0.09332456 -0.09579592 -0.03090885 0.114026085 0.01422313 0.011610439 0.032089893 -0.067564584 0.10460742 0.01459085 -0.13808121 0.07462744 0.05157443 0.15564868 -0.035363268 -0.17545523 0.12449943 -0.11060829 -0.040346544 -0.012064517 0.0024498843 0.115106955 0.092432365 0.07715554
opening -0.0065364055 0.06435931 0.048148282 0.034302108 -0.009375283 0.01536842 0.020876018 0.060703997 -0.01853553 0.04005734 -0.012750897 0.04197275 0.037527785 -0.09043558 0.040559232 0.100161925 0.0025218169 0.01836439 -0.053993754 0.03175284 -0.06580416 0.04244994 0.055497743 -0.0076596504 -0.07222431 0.058740657 0.03746318 -0.08042885 -0.05959786 0.005467552 -0.06228131 0.043784775 0.068323456 0.031180467 0.087924555 -0.020943673 -0.05808361 -0.06798988 -0.073826924 -0.031233855 0.053842895 0.06379829 0.0928297 -0.03230949 -0.0842188 0.012031306 0.022416415 0.02792543 -0.06845565 -0.042226262 -0.09760115 -0.016984494 -0.044523228 0.0112953335 0.0009807209 0.06486807 -0.048915356 0.01410192 -0.060561556 0.019548785 0.08166177 -0.03057137 -0.0014323435 0.08097779 0.0057331645 0.03168754 -0.05086821 0.040903863 0.0054761004 0.060703803 0.0020982819 -0.018003333 0.07275336 0.034921195 -0.013071246 -0.012872228 -0.048001207 -0.0651405 -0.021385323 0.082997784 0.0070522823 0.019949798 0.012435682 -0.04985525 0.060526866 0.025506005 -0.06556698 0.049463462 0.034278914 0.08919775 -0.0314774 -0.09137795 0.07514901 -0.06536647 -0.011316222 -0.005571303 0.023610367 0.057164337 0.044971023 0.04618915
after -0.0751402 0.22712298 0.16140446 0.21959913 -0.043238807 0.12280418 0.095736064 0.18313585 -0.075548306 0.13938536 -0.08390469 0.14906216 0.15618823 -0.29758745 0.15996626 0.35057616 0.0054149716 0.062918074 -0.18793832 0.16804725 -0.23360826 0.14748678 0.20517617 -0.004835759 -0.26373625 0.17710158 0.09335063 -0.32103705 -0.23402889 -0.017604679 -0.15552072 0.18175688 0.20968041 0.11666105 0.2835613 -0.038827173 -0.17522418 -0.2899256 -0.24574333 -0.10779758 0.14147636 0.18801107 0.36695576 -0.09378079 -0.3206845 0.053595427 0.16342077 0.10469051 -0.23040082 -0.1689085 -0.35597548 -0.07639828 -0.12618981 0.036805704 0.057738587 0.21914476 -0.14066492 0.07887584 -0.28825298 0.045417603 0.28016016 -0.05096582 0.014468323 0.31028292 -0.0152999805 0.13922758 -0.1414142 0.13598904 0.021068543 0.23883161 0.018230919 0.002653422 0.25834137 0.08164643 -0.00047611093 -0.08042436 -0.18181483 -0.26004085 -0.06692744 0.28386995 0.025309289 0.02810466 0.08264771 -0.11351739 0.21744828 0.06361138 -0.31153235 0.12766258 0.11273683 0.34020567 -0.09781856 -0.3201084 0.3282383 -0.20167527 -0.023461062 -0.019843988 0.018649276 0.23195861 0.13187455 0.22396675
through 0.016445125 0.19583547 0.19338578 0.12009157 -0.07300361 0.03132403 0.14612207 0.20862846 -0.0839975 0.20366904 -0.08886326 0.21112315 0.124132864 -0.37326774 0.12172395 0.39104158 0.08045584 0.031165646 -0.20227881 0.20864749 -0.3133986 0.12408257 0.14623259 -0.03169439 -0.30377755 0.18389137 0.16584066 -0.3389128 -0.272399 0.0014530236 -0.21557997 0.17810045 0.2601097 0.093755536 0.34478396 -0.06294968 -0.20531383 -0.25771752 -0.29005542 -0.12466087 0.23534991 0.20489949 0.31860107 -0.13745482 -0.30736715 0.11873615 0.032793462 0.06220058 -0.2904025 -0.19378082 -0.36511627 -0.13000835 -0.14632277 0.084139 0.0019488808 0.30750883 -0.1746078 0.13707584 -0.22393994 0.109717004 0.32182518 -0.07719386 0.07770341 0.23996383 -0.02291702 0.18887705 -0.27055505 0.20342025 -0.00612936 0.28648978 0.014057935 -0.070137806 0.21630043 0.17031363 -0.03533871 -0.04237105 -0.1471384 -0.3076072 -0.13490707 0.3554729 0.017940361 0.10062283 0.028723227 -0.15382463 0.2546064 0.12104324 -0.2511413 0.1590648 0.18700433 0.36162177 -0.09546567 -0.26386863 0.3367634 -0.2684604 0.0054912753 -0.016793814 0.12130596 0.22118166 0.09009533 0.21861549
but -0.14656317 0.27559426 0.12777719 0.23191717 0.04592636 0.15557534 0.051570047 0.21886504 -0.0124396 0.047330458 -0.11221509 0.08354992 0.19546829 -0.32461065 0.23747791 0.3489553 -0.13988566 -0.010269059 -0.22591588 0.045174006 -0.055620484 0.22915567 0.25692847 -0.032366585 -0.27277768 0.266028 0.075059295 -0.2768083 -0.18942998 0.042367484 -0.06280509 0.18620366 0.1030121 0.2001811 0.2728561 -0.029051965 -0.08490535 -0.36206567 -0.2834756 -0.13703203 0.07488053 0.19407353 0.4111096 -0.035684355 -0.36044717 -0.09415701 0.32095674 0.092405364 -0.17972702 -0.0805234 -0.34297678 -0.043483827 -0.17621544 -0.034286756 0.103985235 0.14380121 -0.13370022 -0.0064812284 -0.3450942 0.029342672 0.20189887 -0.05858439 -0.17007513 0.37754655 -0.018491065 0.102380104 -0.009151321 0.12465745 0.03276849 0.20435564 -0.039173253 0.063073084 0.28777397 0.021146758 0.035688296 -0.14863685 -0.22961938 -0.23583299 -0.06538379 0.2430655 -0.007929285 -0.10670006 0.15679547 -0.12626994 0.16773096 0.005098315 -0.43700027 0.08825573 0.024289541 0.32811928 -0.07406358 -0.3989446 0.29381993 -0.16871244 -0.09374512 -0.046221975 -0.04631749 0.27664706 0.25574106 0.15983126
golden -0.024102783 0.07637813 0.05034646 0.053777743 -0.03107568 0.029010164 0.015682125 0.06042743 -0.012131036 0.027709633 -0.0055907536 0.02516228 0.032814417 -0.07132758 0.044063136 0.09466309 0.0016856065 0.02056252 -0.041323986 0.027516354 -0.056179572 0.042315986 0.08042511 0.0034229327 -0.055143096 0.051479306 0.04479948 -0.07197408 -0.043176364 -0.017912975 -0.05620972 0.039214905 0.05325374 0.04027371 0.07988227 -0.012846352 -0.060520273 -0.06099554 -0.04296441 -0.031365525 0.048676074 0.051391967 0.09501362 -0.034202095 -0.074311964 -0.00680132 0.0250048 0.031399745 -0.041037705 -0.0434436 -0.082842655 0.006055075 -0.042875092 0.0039168205 -0.009951858 0.037098467 -0.04489743 0.0011017682 -0.0483535 -0.009646602 0.060923994 -0.029612584 0.006542418 0.086149044 0.012109115 0.016601292 -0.016016541 0.030175203 0.00579497 0.039373413 -0.0075133513 0.008448456 0.06699538 0.01970962 -0.009171225 0.011323963 -0.06252855 -0.04078689 -0.0053854957 0.057044424 0.008081923 0.006444334 0.021982728 -0.039948575 0.057204455 0.0054021706 -0.069190204 0.034348395 0.034388952 0.084733196 -0.019008625 -0.103082694 0.056461394 -0.06164653 -0.02637517 -0.010647842 -0.0038255826 0.0620758 0.058624234 0.03425375
age -0.031727694 0.11917193 0.086765416 0.0772555 -0.018978525 0.03105695 0.046450935 0.10784675 -0.016184049 0.05279599 -0.02988182 0.0554218 0.06867291 -0.15790768 0.08666403 0.1864578 -0.002483533 0.022020891 -0.0923738 0.05728429 -0.09998845 0.083544485 0.10253234 -0.0061099725 -0.13745211 0.10487579 0.06972992 -0.14285518 -0.09438398 0.011609523 -0.10783178 0.10886187 0.11074143 0.06453205 0.14521916 -0.03620416 -0.09436654 -0.13211526 -0.14325334 -0.050836314 0.08376485 0.09974239 0.18844391 -0.06581019 -0.15703708 9.69445e-05 0.05363797 0.044801127 -0.11525567 -0.062140107 -0.18729682 -0.027921572 -0.07635271 0.007929129 0.014826469 0.10337573 -0.09310142 0.028443301 -0.13793422 0.029222347 0.13447984 -0.035062127 -0.010969328 0.14949474 0.0012898862 0.04982829 -0.07665158 0.06633425 0.02692716 0.10136143 -0.0054185176 0.005019304 0.12744562 0.05795483 -0.01357083 -0.042409487 -0.08841967 -0.1096334 -0.03046595 0.13159473 0.00904814 0.021139653 0.03986037 -0.07517423 0.10137157 0.035737697 -0.15026195 0.07389551 0.050518706 0.16129258 -0.055762913 -0.16122296 0.14206915 -0.113068186 -0.032764893 -0.019365583 0.020421864 0.12604594 0.091405086 0.08653703
West -0.02011724 0.11110023 0.08984309 0.074903965 -0.040830668 0.025769798 0.052156746 0.10965033 -0.02413909 0.067451745 -0.028218593 0.06033704 0.04693143 -0.14773259 0.06323344 0.1699353 0.008715616 0.02203562 -0.08594862 0.06584833 -0.119641505 0.077908374 0.117172 0.009049615 -0.11431656 0.09045489 0.07156725 -0.13828115 -0.10240245 -0.00039466892 -0.11387585 0.094582334 0.1153982 0.06804214 0.15343797 -0.045144573 -0.109898 -0.12069305 -0.13448407 -0.06098403 0.09723084 0.09703393 0.17395884 -0.067591935 -0.14295967 0.021535436 0.030799307 0.047814265 -0.10774611 -0.07732589 -0.164925 -0.028762914 -0.07296648 0.02693568 -0.0029603757 0.11188962 -0.075592965 0.03984549 -0.1049287 0.017903939 0.13660662 -0.049514655 0.0037824577 0.13691472 0.008818083 0.04565893 -0.09083226 0.07084852 0.004735393 0.100338385 0.003196438 -0.016079182 0.122600034 0.05854761 -0.032081593 -0.0127866855 -0.08794565 -0.11559948 -0.029771665 0.13584794 0.027092082 0.037393283 0.021767695 -0.07201282 0.11446406 0.040486608 -0.12969229 0.080872096 0.061285336 0.16446814 -0.043533277 -0.15183228 0.14083248 -0.11867507 -0.02875642 -0.012136916 0.028299052 0.12150437 0.07639478 0.08561014
shows -0.027777582 0.07076234 0.060166158 0.057695787 -0.017170914 0.031704932 0.02311105 0.055070557 -0.018708162 0.03931553 -0.012473013 0.029795585 0.036508206 -0.080863684 0.04751795 0.103931196 0.0026157605 0.021146297 -0.04474737 0.033799764 -0.06239746 0.041927192 0.0668988 -0.0014604764 -0.06913098 0.04269457 0.034725647 -0.093579434 -0.051107924 -0.01764841 -0.05507632 0.050819095 0.060201693 0.03169508 0.08595689 -0.016119117 -0.05254369 -0.068875454 -0.05948906 -0.03235627 0.049205717 0.05381189 0.10128945 -0.038213603 -0.07837813 0.004129797 0.033897307 0.029167844 -0.056192826 -0.045365956 -0.08745622 -0.010675988 -0.035610255 0.013718448 0.004250663 0.044850882 -0.047432993 0.013062543 -0.06618219 -0.005146644 0.07586417 -0.026514286 0.001136881 0.08713382 0.0054831253 0.03064776 -0.028852312 0.031688556 0.0070985896 0.052172877 0.0061410437 0.0015446002 0.07254297 0.016588764 -0.005788696 -0.008532707 -0.059399396 -0.05972963 -0.014479721 0.075672075 0.014276276 0.009477571 0.022596607 -0.04000135 0.065211624 0.016524153 -0.08462755 0.04472101 0.034161374 0.089674264 -0.025652735 -0.103388056 0.080157466 -0.06361242 -0.011799133 -0.00344143 0.008173391 0.06277777 0.048084483 0.05394839
being -0.084836215 0.2510084 0.1645681 0.121434085 -0.040984616 0.050913226 0.08147999 0.22217432 -0.022909986 0.061410535 -0.044888806 0.058714114 0.09890466 -0.29177484 0.18549225 0.38315344 -0.009626636 0.050717548 -0.19738492 0.07161725 -0.17755716 0.16597396 0.25771102 -0.0025636854 -0.2584875 0.20840286 0.16248727 -0.26260805 -0.15241994 0.035312604 -0.24761522 0.22179098 0.20661704 0.14793605 0.29106373 -0.111816585 -0.21272373 -0.26101568 -0.31610677 -0.11244408 0.18316077 0.19005115 0.3732203 -0.14912981 -0.30974028 -0.046770465 0.09440287 0.12195034 -0.22526625 -0.107500345 -0.3693648 -0.020807369 -0.16026178 0.03352305 -0.0066847373 0.18591979 -0.17808257 0.027940951 -0.24964762 0.024084484 0.24845941 -0.10830909 -0.03751486 0.31271458 0.010945562 0.040610395 -0.142088 0.14559107 0.050362214 0.15690589 -0.009344573 0.03478708 0.25377062 0.10236906 -0.0566571 -0.05198718 -0.1925281 -0.1775835 -0.050291684 0.23190708 0.037614845 0.038292345 0.08585185 -0.14571051 0.17624098 0.08166814 -0.2975918 0.15652144 0.06901101 0.32660392 -0.113037996 -0.3335786 0.2608757 -0.2242999 -0.12809257 -0.044877905 0.024177764 0.29115742 0.21614982 0.13290022
as -0.14942263 0.22899644 0.13178247 0.30567345 0.0084479535 0.17464319 0.09773065 0.12903884 -0.040782847 0.0072063766 -0.15561084 0.018543912 0.24283746 -0.2220152 0.2989694 0.33758774 -0.1373607 0.046192065 -0.29095688 0.06335128 -0.126496 0.2329918 0.22519206 0.06831842 -0.24703407 0.17775428 0.039518975 -0.26123857 -0.23196048 0.102269955 -0.06388022 0.2500976 0.21832125 0.20821503 0.16700497 -0.049492013 -0.07805621 -0.32171082 -0.3915536 -0.09311207 0.028249532 0.18839839 0.42143095 -0.08975958 -0.37001145 -0.05183547 0.3029474 0.1548053 -0.26691985 0.02343748 -0.5127799 -0.08211155 -0.15415572 -0.040211223 0.18772794 0.22694898 -0.037199847 0.036180183 -0.38434342 0.117698155 0.24831031 0.027190397 -0.086354524 0.38268653 -0.100235455 0.041516375 -0.08883018 0.18615426 0.13917385 0.22974196 0.0043700947 0.12968618 0.35489067 0.03490182 0.08480483 -0.24994342 -0.11925689 -0.26431313 0.0036814932 0.13382854 -0.042892586 0.045317903 0.23935032 -0.016827682 0.08210769 0.065124504 -0.4566741 0.07288602 -0.15621033 0.39116523 -0.14305398 -0.35883284 0.40115178 -0.09631725 -0.09725521 -0.052610025 -0.06621622 0.39461654 0.19511038 0.19517
it -0.12087413 0.2741492 0.09311703 0.24309608 0.12953053 0.13977641 -0.032423563 0.22919662 -0.027064526 -0.04126953 0.081627324 -0.033459578 0.050764296 -0.39262488 0.11238028 0.3400017 -0.15813884 0.039995108 -0.25296032 -0.015966015 0.05931755 0.28762478 0.3933842 -0.017612265 -0.20535111 0.3807318 0.13184604 -0.14279589 -0.10097254 0.034035537 -0.1316113 0.1223143 0.14742921 0.27272043 0.27773586 -0.19312702 -0.23369557 -0.4019837 -0.34570527 -0.20615911 0.11866133 0.29972896 0.37410313 -0.035935286 -0.3264214 -0.21010013 0.29632518 0.19999352 -0.0041304785 -0.079875976 -0.24243566 0.012723972 -0.38555655 0.022653544 -0.1406246 0.027877063 -0.13768458 0.03861176 -0.26674643 -0.096081786 0.2244744 -0.22707464 -0.3326351 0.5448373 0.1130904 0.07648846 0.01992355 0.1416517 -0.10468685 0.13896225 0.035767995 0.06204892 0.42291966 -0.08361193 -0.25073692 -0.017369902 -0.26666406 -0.16169922 -0.10752006 0.26298383 0.1652491 -0.13445263 0.03747111 -0.22733372 0.290049 -0.027571483 -0.35140952 0.10728492 0.101464696 0.32851925 -0.06967701 -0.5176876 0.2026146 -0.18318647 -0.37541538 0.026850127 0.008649935 0.24614637 0.38843971 0.072208
just -0.15277714 0.29965284 0.18991628 0.3446922 -0.08579272 0.21444464 0.03510492 0.19684407 -0.11107846 0.1061207 -0.0028300304 0.07952993 0.11874135 -0.27454022 0.15714343 0.32605693 -0.037456047 0.10905405 -0.17892917 0.11291733 -0.15726368 0.21725208 0.35748112 0.06738016 -0.19567503 0.1942739 0.09306981 -0.29890266 -0.1903543 -0.08851505 -0.14699104 0.15225144 0.16752934 0.23168287 0.28509438 -0.059142854 -0.19625762 -0.27578002 -0.1580561 -0.12630606 0.09572846 0.23062642 0.39226317 -0.07694092 -0.2925701 -0.047612924 0.23730929 0.16856197 -0.11565542 -0.15637946 -0.2893212 0.030624025 -0.19538265 0.049243703 -0.01591867 0.095180884 -0.12440652 0.013744157 -0.2649776 -0.07113546 0.2252 -0.13396314 -0.06863252 0.43731508 0.058217883 0.072559185 0.006545504 0.095617026 -0.03593712 0.14955324 0.031406127 0.051337797 0.33964604 -0.025230397 -0.068709314 0.0009957565 -0.2567028 -0.17273907 -0.016084244 0.21582182 0.10424637 -0.051989082 0.08413415 -0.120891415 0.22774272 -0.028905801 -0.34653026 0.13908248 0.08230047 0.33518893 -0.042668015 -0.4664138 0.28036 -0.19435002 -0.11618749 0.035442986 -0.057910062 0.24639119 0.24944948 0.21000658
Hollywood -0.06800326 0.20587204 0.14384282 0.11138513 -0.053684916 0.037029393 0.065180756 0.17713033 -0.030042836 0.06850909 -0.03507718 0.06191974 0.08632311 -0.2364656 0.13982978 0.31661165 0.00719821 0.049947415 -0.15312989 0.075404495 -0.16535741 0.12683067 0.20432705 -0.00068088504 -0.20320497 0.16606931 0.13965532 -0.2191273 -0.12992622 0.014331302 -0.2007095 0.16386062 0.1786474 0.119246714 0.24077682 -0.08730294 -0.17715472 -0.19638991 -0.2244065 -0.08952491 0.16488895 0.15775108 0.2830989 -0.12809257 -0.23931646 -0.02039309 0.058455165 0.08908664 -0.18431894 -0.10027867 -0.28034863 -0.013034181 -0.12634712 0.035659507 -0.015424314 0.14567295 -0.1506638 0.034287084 -0.18423888 0.011046996 0.20922136 -0.08916904 -0.009182619 0.24765182 0.008943669 0.04644283 -0.120846786 0.113156945 0.031236595 0.12356116 -0.0036628037 0.012634293 0.19890887 0.09619636 -0.047542505 -0.02052637 -0.14968465 -0.15273458 -0.03953159 0.19759017 0.031321716 0.039885983 0.05650171 -0.11880638 0.15427004 0.06680412 -0.23024565 0.13254218 0.07901109 0.2592987 -0.08255633 -0.27192166 0.20088601 -0.19392426 -0.092045695 -0.029972078 0.031035567 0.21506312 0.16265363 0.110090464
new -0.057748076 0.22603092 0.17036006 0.15486309 -0.069668725 0.061370548 0.10702255 0.18372717 -0.06414009 0.13171688 -0.056974236 0.111997925 0.10615245 -0.2951752 0.14940055 0.3668338 0.026099892 0.059499666 -0.17822997 0.13856998 -0.23690459 0.14356984 0.20886405 -0.005533621 -0.25666317 0.14954558 0.14249668 -0.29768583 -0.19274655 -0.009879859 -0.22486572 0.20237586 0.21805516 0.11859615 0.27468187 -0.08438088 -0.18683484 -0.24874029 -0.272848 -0.092419125 0.16767648 0.17184937 0.34797978 -0.13565487 -0.2786259 0.02747447 0.07442592 0.11576598 -0.240066 -0.1545813 -0.33934218 -0.05377229 -0.12779193 0.05105917 -0.003167149 0.21206611 -0.16399541 0.06149845 -0.23962918 0.028356124 0.27516463 -0.07310746 0.022729537 0.28154376 -0.007190672 0.08906424 -0.16830723 0.15705605 0.032574855 0.18527938 0.016978392 0.012134502 0.22997223 0.11153003 -0.035442747 -0.04196952 -0.17098343 -0.21855783 -0.06513863 0.25550357 0.05064505 0.07116157 0.071041875 -0.11685234 0.18921794 0.081822574 -0.2753782 0.15110491 0.10145062 0.32834265 -0.094196536 -0.28825918 0.27414644 -0.21649274 -0.052725106 -0.023189664 0.043584775 0.2457898 0.15624543 0.19222789
Great -0.015147582 0.07413008 0.054401133 0.04478658 -0.011185032 0.01777153 0.023671988 0.061692655 -0.01494057 0.034184255 -0.014174742 0.0324816 0.032018714 -0.09432261 0.039591394 0.106730446 0.005246989 0.016734052 -0.059371684 0.030507356 -0.063222155 0.04213429 0.07443344 0.0022760285 -0.072964214 0.0669149 0.04744902 -0.083615385 -0.05747082 0.0067965435 -0.06435363 0.057476457 0.07147225 0.04352984 0.09501911 -0.024316452 -0.06286286 -0.08404974 -0.08539074 -0.041831344 0.058452796 0.06204918 0.109586276 -0.037397422 -0.0901322 0.009270562 0.023747401 0.037217718 -0.07034259 -0.04224731 -0.107223324 -0.0159796 -0.046284337 0.011329528 -0.0029113228 0.06376582 -0.049499888 0.020793375 -0.07061363 0.012211037 0.0885679 -0.03259047 -0.004966579 0.084817834 0.0031873086 0.034816556 -0.054692056 0.042145107 0.004231871 0.065290764 0.00088722655 -0.0098923575 0.079182334 0.035416152 -0.015674487 -0.020069841 -0.05811552 -0.07463213 -0.021311784 0.08977363 0.017371193 0.01672684 0.015577631 -0.047330502 0.06408586 0.022881843 -0.08490497 0.05145543 0.04000382 0.10108921 -0.029569497 -0.1000811 0.085315205 -0.07114047 -0.028624954 -0.0031977254 0.021684337 0.071887285 0.05390631 0.046717715
, -0.018071346 0.036225535 0.0283156 0.029926192 -0.012803779 0.020256046 0.010434491 0.025929917 -0.011956063 0.010765576 -0.007106949 0.009939855 0.01553327 -0.033821635 0.024812186 0.049709987 0.00432806 0.010492951 -0.022854015 0.010826036 -0.026186524 0.025279908 0.034613743 0.0025965506 -0.023883514 0.025831893 0.016060198 -0.039350625 -0.023520567 -0.01335261 -0.02340242 0.017627236 0.028587345 0.018122736 0.035894275 -0.009604095 -0.024522856 -0.029125085 -0.025998928 -0.0148522295 0.018512925 0.029021114 0.05288104 -0.012179238 -0.040071297 0.0030667426 0.019028425 0.012996587 -0.02613438 -0.018301016 -0.04525916 0.00554674 -0.01664842 0.0020929344 -0.00047216163 0.013864374 -0.024162782 -0.0015371911 -0.030095413 -0.003625311 0.03267046 -0.012628816 -0.0035933317 0.044162814 0.0049010795 0.012239521 -0.0036821738 0.011953987 -0.00031822702 0.0210222 -0.0015352344 0.0017748901 0.03980836 0.00790672 -0.0005242953 0.003234912 -0.03488825 -0.028179586 -0.0076735327 0.027869184 0.0076839635 0.00199298 0.005012448 -0.023336804 0.025395975 0.0031049673 -0.036759604 0.017534826 0.012468235 0.044572953 -0.0056443727 -0.0578297 0.030530734 -0.026713861 -0.0067184553 -0.0060263495 -0.0021939129 0.028474115 0.028445574 0.024742883
one 0.101869844 0.09631617 0.029320303 -0.12780029 0.042862955 -0.13415582 0.23002893 0.24054036 0.0051213163 0.055059418 -0.050577663 0.09037763 0.008497522 -0.342428 0.11214168 0.3729361 0.0481672 -0.013818523 -0.22727294 0.08458288 -0.2782599 0.08133214 0.17999099 -0.09831147 -0.34222862 0.20391488 0.21967801 -0.21736333 -0.1690684 0.24257134 -0.35958168 0.41158223 0.27229705 0.10210748 0.25989825 -0.30736598 -0.23497711 -0.3045071 -0.6503538 -0.1436433 0.18598516 0.10908794 0.43074384 -0.16447842 -0.32811913 -0.022551963 -0.02532005 0.09081237 -0.3619994 -0.031771608 -0.5224335 -0.22928736 -0.19455437 0.11889046 0.021470193 0.40584713 -0.14818344 0.11593537 -0.29832566 0.20300195 0.3880845 -0.13668987 -0.07536111 0.21494924 -0.022164535 0.06950513 -0.4823389 0.3200508 0.033567425 0.28248653 0.01530684 -0.049865376 0.28442302 0.18856853 -0.14364453 -0.22386594 -0.08881886 -0.2587195 -0.15813312 0.3113473 0.12429614 0.22121425 0.06588597 -0.16490903 0.14517997 0.20837398 -0.21866822 0.23741865 0.049246676 0.3900466 -0.19125026 -0.14224215 0.34153748 -0.1942674 -0.085266456 -0.005756779 0.21397202 0.42590457 0.20295975 0.18831134
first 0.06628749 0.16390973 0.16664043 0.059291508 0.001717817 -0.0016218637 0.13651712 0.2419037 -0.041258402 0.14265274 -0.07161364 0.19178697 0.09884891 -0.3594667 0.0948813 0.3500264 0.029171258 0.00734434 -0.2212028 0.15196607 -0.2625808 0.13067703 0.16312833 -0.036481827 -0.28967512 0.25283003 0.15290377 -0.25315952 -0.26179796 0.10254721 -0.20288037 0.18739891 0.26591167 0.13390574 0.35364422 -0.10566369 -0.23043446 -0.26780808 -0.3583288 -0.16851448 0.23181832 0.2478844 0.31557146 -0.11114688 -0.32112157 0.080182254 0.039633892 0.043277066 -0.27688912 -0.12390918 -0.38957733 -0.14475773 -0.22382307 0.09035418 0.017193379 0.30744097 -0.1411463 0.14918102 -0.22353221 0.16844316 0.32068458 -0.11159814 -0.02295524 0.23360851 -0.01080431 0.18178587 -0.29783073 0.21293855 -0.031582367 0.3273414 0.018069575 -0.1284673 0.25343475 0.17292222 -0.0920103 -0.085145034 -0.1073768 -0.3047133 -0.16259609 0.33701947 0.016587907 0.103048965 0.03628005 -0.1833283 0.25606847 0.12159326 -0.22714671 0.18326089 0.15463433 0.35313123 -0.11842527 -0.27715138 0.33493748 -0.25477704 -0.04983815 -0.015118131 0.16546254 0.2363996 0.111029305 0.17518815
movie -0.04535218 0.22880559 0.18370664 0.13866355 -0.046804532 0.0389662 0.1191187 0.21143074 -0.04828849 0.13860944 -0.084793955 0.1341877 0.14283721 -0.35374627 0.1697107 0.41734597 0.021376127 0.03588696 -0.2152797 0.15912534 -0.25590193 0.16036375 0.18104146 -0.024009142 -0.3145593 0.20302927 0.16245303 -0.31261897 -0.23252058 0.0364819 -0.22666423 0.22169538 0.24819036 0.12691334 0.31852257 -0.09056878 -0.19787374 -0.2794287 -0.3253723 -0.11781479 0.2074745 0.21275003 0.35941017 -0.14739785 -0.31989408 0.041618254 0.072207436 0.09495453 -0.2851297 -0.15492748 -0.38843575 -0.08976598 -0.15381065 0.054387696 0.008909584 0.26116732 -0.18602714 0.08864788 -0.2749815 0.0761554 0.31180665 -0.06710167 0.027832413 0.28421208 -0.017657697 0.11907853 -0.22284193 0.17372708 0.038850736 0.226422 0.0130387405 -0.008364109 0.2452411 0.14680627 -0.029104825 -0.07114392 -0.16566432 -0.26737392 -0.101036325 0.30145577 0.020804884 0.0779985 0.078960314 -0.14923123 0.22352411 0.11037336 -0.306273 0.15349348 0.11129012 0.35056525 -0.11236118 -0.29720277 0.31234068 -0.24923177 -0.06758268 -0.04066968 0.06569536 0.25406513 0.14810634 0.18263175
If -0.1485627 0.31439182 0.21942243 0.2847738 -0.09993163 0.17065287 0.040646676 0.19940554 -0.1011602 0.14569172 -0.028749183 0.09013856 0.1384811 -0.2941533 0.18064918 0.36710694 -0.014941725 0.09075654 -0.15958947 0.12308568 -0.19791697 0.18979289 0.31152394 0.025756372 -0.20748238 0.16727708 0.12795106 -0.3302124 -0.17981116 -0.124166705 -0.19259338 0.13315956 0.18859692 0.16798842 0.29766142 -0.044083025 -0.19366871 -0.26701307 -0.12912941 -0.10283724 0.15546557 0.22942944 0.3912041 -0.114914365 -0.28959605 -0.008822763 0.18492848 0.14161222 -0.15045771 -0.18591708 -0.29257995 0.04659484 -0.14524986 0.023002455 -0.021434333 0.11533755 -0.19450575 -0.00723949 -0.23630024 -0.071636796 0.22892681 -0.11732846 -0.0064502386 0.4011712 0.057327412 0.07450736 -0.01931999 0.10246455 0.0048939576 0.12969457 0.014825624 0.038652487 0.2899353 0.032684572 -0.04020357 0.01859806 -0.26563337 -0.1925611 -0.01475796 0.24273136 0.07776142 -0.01480609 0.07398105 -0.14885068 0.23708504 0.0029699937 -0.3366112 0.14760768 0.12069759 0.33827555 -0.048743356 -0.44688755 0.24582076 -0.2377306 -0.07209973 -0.0073307725 -0.016925018 0.22035316 0.23320821 0.203339
and -0.049127355 0.30759794 0.4230762 0.0012680445 0.13879769 -0.118658006 -0.027703688 0.11002535 0.048417974 0.23814094 -0.18228292 0.02281934 0.316743 -0.53494877 0.2372193 0.54758614 -0.118605964 -0.066256896 -0.25457147 0.2241471 -0.26791456 0.31334075 -0.26215482 -0.13605173 -0.26819727 0.13774718 0.27279755 -0.2671689 -0.2543608 -0.12578999 -0.34028438 -0.079545125 0.42921206 -0.01089353 0.21819064 -0.15168265 0.04455929 -0.2513457 -0.19913836 0.042169213 0.3331915 0.36452144 0.27942657 -0.2765297 -0.1897537 0.14367332 -0.096797474 0.025574364 -0.41695446 -0.23274516 -0.48828 0.019901274 -0.18107466 0.043665692 -0.16619429 0.28682014 -0.48446494 -0.11413688 -0.15884966 -0.021860572 0.3370444 0.09120089 0.15329857 0.23824446 -0.05591424 -0.039402913 -0.23482421 0.11291484 0.21346338 0.10769756 0.097602524 -0.043206014 0.019591387 0.14161733 -0.02094729 0.0136680985 -0.28500393 -0.33087945 -0.11640303 0.23067154 -0.039670616 0.24305771 -0.015755404 -0.24553476 0.27435315 0.027363403 -0.25630653 0.10215511 0.09669918 0.24517147 -0.1731219 -0.27197653 0.005645733 -0.3583497 -0.15938899 -0.21857609 0.25336516 -0.04546149 0.22048384 0.073557585
if -0.23754826 0.35224733 0.21566305 0.46765012 0.04533577 0.29971066 -0.03654209 0.19133069 -0.100560844 0.069320746 -0.0077009024 0.05996434 0.2204971 -0.3212339 0.22105137 0.32677066 -0.16843694 0.08069451 -0.20290169 0.036382385 -0.016246727 0.3217834 0.35711512 0.04215567 -0.17748953 0.29631054 0.016611502 -0.24998464 -0.18738705 -0.07528196 0.0062594833 0.08167529 0.14851142 0.30043572 0.2911847 0.012162549 -0.1181697 -0.33479962 -0.07606172 -0.15246458 0.031373028 0.3515031 0.42922905 -0.02683574 -0.32558867 -0.14176965 0.44932503 0.15882432 -0.03374659 -0.10566511 -0.2699325 0.093165554 -0.28213754 -0.03477227 0.048305042 -0.013923679 -0.14734195 -0.06145664 -0.3329973 -0.050066233 0.1897232 -0.102079906 -0.20446676 0.5457053 0.08436548 0.10728902 0.1816925 0.062414728 -0.05911718 0.14105883 0.029546639 0.04035876 0.40965986 -0.0837808 -0.017837266 -0.075132824 -0.30163303 -0.20282155 -0.011820444 0.19939286 0.052450635 -0.16881569 0.14268939 -0.20044957 0.27756462 -0.11849752 -0.49504647 0.108200125 0.04255958 0.35445586 -0.023956375 -0.6324875 0.23532543 -0.17702407 -0.16918607 0.04220367 -0.07686398 0.15842883 0.32990798 0.18706311
United 0.004402612 0.12495876 0.111966446 0.05952872 -0.027998019 0.019635713 0.07455726 0.13343447 -0.03728632 0.09913271 -0.03855862 0.08953034 0.06877412 -0.20937538 0.07593875 0.22401106 0.029561091 0.01791178 -0.12036463 0.10166243 -0.1783854 0.077243604 0.11461103 -0.0131515665 -0.16919363 0.12231419 0.09783071 -0.19201888 -0.14573559 0.02704972 -0.15174079 0.12977514 0.15912025 0.06401072 0.19895777 -0.06333941 -0.14169493 -0.17470582 -0.21323225 -0.08205139 0.1303011 0.12243779 0.23199102 -0.085412174 -0.20481469 0.041059203 0.033031534 0.058572724 -0.1695793 -0.09558281 -0.23232722 -0.07435572 -0.09812366 0.04861315 0.007679754 0.17428608 -0.10402242 0.07371363 -0.14702794 0.060765035 0.19162697 -0.057742957 0.0030925546 0.15381786 -0.0048569413 0.08477703 -0.1614246 0.12098796 0.0068847346 0.16156143 0.013519217 -0.039905693 0.15694197 0.093727 -0.045958087 -0.038540386 -0.09593591 -0.17764571 -0.06934267 0.19970912 0.034899235 0.06800332 0.033020403 -0.095192514 0.14725567 0.07493844 -0.150966 0.10787469 0.09953259 0.21940653 -0.07979056 -0.17383958 0.1981009 -0.15135725 -0.024711201 -0.015868194 0.07777363 0.1563205 0.080256075 0.12219942
States -0.011316467 0.09966445 0.087848715 0.07035324 -0.026386095 0.028182156 0.046508644 0.09707144 -0.028707236 0.068818934 -0.023291297 0.05973492 0.056363348 -0.13946906 0.05908825 0.15856567 0.014257507 0.018938249 -0.08956564 0.06637615 -0.107469365 0.07054078 0.09119208 -0.0020795807 -0.110336676 0.08252434 0.055484563 -0.13576162 -0.09779025 0.003528736 -0.097345464 0.08303408 0.10188204 0.053191453 0.1414814 -0.032399718 -0.093012005 -0.12031463 -0.12397091 -0.056757953 0.08257197 0.095958225 0.15851367 -0.058750924 -0.1426038 0.01619376 0.034255788 0.048236817 -0.10153739 -0.06990588 -0.15038973 -0.031275682 -0.07102347 0.025624022 0.005490283 0.10072186 -0.069694914 0.0421923 -0.10321478 0.025999561 0.12909496 -0.040012684 0.0021328195 0.12633778 0.0029660475 0.058589365 -0.087729156 0.07028908 0.005447426 0.10197613 0.005627654 -0.013235384 0.10975932 0.055782847 -0.030077921 -0.017178971 -0.07550787 -0.10938082 -0.03597553 0.13074413 0.024599189 0.022543157 0.026626721 -0.0684331 0.10434252 0.032689843 -0.11776643 0.06954881 0.06470234 0.1565633 -0.04102877 -0.1416844 0.12688074 -0.1023909 -0.020776814 -0.0133616105 0.029560609 0.10166674 0.068114705 0.0851254
John -0.022118358 0.04652015 0.031995837 0.029585883 -0.010477349 0.018476047 0.009331082 0.041976243 -0.00953348 0.008142924 -0.00062558515 0.015262618 0.021835592 -0.0479629 0.03064801 0.060227945 -0.00015851005 0.0069904607 -0.029964402 0.0070192986 -0.03200351 0.03395621 0.05500289 0.006683626 -0.036672186 0.041120887 0.02429283 -0.04596865 -0.024304695 -0.0028064481 -0.04050613 0.034043975 0.032732222 0.028822824 0.05190301 -0.018853877 -0.03559654 -0.040349305 -0.038569357 -0.019232139 0.02996612 0.043029603 0.06711179 -0.024312407 -0.05599897 -0.00875801 0.01911963 0.019655297 -0.031974666 -0.021454906 -0.05666985 -0.0005887721 -0.03453015 0.001205671 0.002003752 0.02291134 -0.029984519 0.007980573 -0.038746253 0.0030069186 0.036232326 -0.021826552 -0.013066428 0.06308222 0.010157208 0.0048682787 -0.01410319 0.014432162 0.00080486137 0.026698865 0.00089364557 -0.00011413461 0.044504095 0.01249265 -0.011366143 -0.007033255 -0.039165966 -0.026517093 -0.005287213 0.039794702 0.008016897 -0.0006265032 0.01667898 -0.034057543 0.03884227 0.0037800078 -0.046944693 0.030266501 0.021935662 0.05074831 -0.01840777 -0.07374766 0.03851565 -0.04384654 -0.021390403 -0.007843332 0.00058105076 0.040224116 0.0444417 0.020209642
All -0.048288986 0.20424826 0.15175228 0.13481475 -0.06337022 0.07027735 0.08451604 0.17893507 -0.049014438 0.10530239 -0.04644789 0.09711578 0.09250426 -0.25247955 0.12901108 0.30034465 0.011773367 0.043770637 -0.15160367 0.10532236 -0.19997635 0.12478341 0.20517994 0.0059087607 -0.20151086 0.15484148 0.11457552 -0.25708178 -0.17543785 0.00025747292 -0.1872018 0.1684483 0.17985246 0.10618286 0.24971113 -0.065293804 -0.18747018 -0.2233702 -0.2322956 -0.09941186 0.160206 0.16472366 0.3093219 -0.10580277 -0.26893482 0.019867346 0.08140425 0.09398427 -0.18873481 -0.12690485 -0.29919347 -0.050376903 -0.1227261 0.042804766 0.010910695 0.18874724 -0.13447647 0.06001363 -0.19791874 0.032117683 0.22737378 -0.08492894 0.002450486 0.24849896 -0.00043361247 0.08714327 -0.14123538 0.12540089 0.02320219 0.17576253 0.005509722 -0.0056649735 0.21539782 0.09342493 -0.040772572 -0.034009453 -0.15898378 -0.1945596 -0.0511746 0.2297161 0.04457755 0.04260667 0.054639194 -0.115339935 0.17911653 0.067074224 -0.23664053 0.13381886 0.10353106 0.28223357 -0.07941729 -0.27003157 0.25121957 -0.19476013 -0.04572372 -0.022640187 0.043904334 0.22552827 0.14219914 0.15857403
that -0.11210264 0.24827032 0.12077113 0.1583828 0.16778742 0.07963176 0.009557461 0.30920693 0.013725852 0.0105337035 -0.054986022 0.0876069 0.15585613 -0.38927862 0.15798232 0.29892185 -0.20150593 -0.051415175 -0.22212213 -0.03435715 0.007279138 0.30238977 0.28115267 -0.059219692 -0.21889411 0.39052334 0.08638931 -0.15833883 -0.1740636 0.15623918 -0.048654716 0.14219275 0.10104316 0.27523604 0.3215115 -0.10889668 -0.12127301 -0.39430618 -0.2944621 -0.22947444 0.07967121 0.2918354 0.39436963 0.026646076 -0.3766351 -0.19035088 0.3466273 0.007080021 -0.0807665 -0.041261993 -0.27005723 -0.047624554 -0.33938584 -0.030003544 0.069325574 0.08433469 -0.13880695 -0.0016436423 -0.31894916 0.09865572 0.18167447 -0.15663306 -0.36730245 0.39578307 0.044622097 0.12107876 -0.030864362 0.13960795 -0.09108185 0.22285584 -0.05835487 -0.087909065 0.33828434 0.027968844 -0.0766987 -0.1479563 -0.20339832 -0.21216208 -0.14328045 0.26587936 0.010903792 -0.16533051 0.12773146 -0.2633575 0.26501417 -0.040392082 -0.4135277 0.13388945 0.08284746 0.32005617 -0.06649098 -0.47807583 0.20552911 -0.19166152 -0.17460191 0.012863757 0.052946664 0.20799701 0.330307 0.08654957
has -0.10091448 0.2933058 0.22510211 0.27462527 -0.14443827 0.13870497 0.09787942 0.26982206 -0.08006532 0.08475284 -0.07178465 0.14717199 0.15068106 -0.27821842 0.18622628 0.372669 -0.0070979963 0.070179544 -0.19485241 0.114362635 -0.19957992 0.19532989 0.29782462 0.07157307 -0.26125997 0.23630404 0.14615303 -0.2885392 -0.24017519 -0.031831007 -0.1454785 0.12230208 0.20131567 0.25994945 0.36868754 -0.0052089267 -0.20362541 -0.18987605 -0.14030457 -0.1565332 0.20922625 0.25616002 0.25940445 -0.11766416 -0.28367487 0.01811838 0.1347197 0.06042233 -0.17933476 -0.13161977 -0.3187565 0.03618999 -0.21663564 0.042920988 0.028222406 0.15192024 -0.13316667 0.0831142 -0.21136822 0.02507201 0.19538337 -0.12859906 0.033418827 0.3358779 -0.011827513 0.08821587 -0.06519179 0.10047817 0.008478601 0.19614679 -0.039447147 0.022490574 0.2508449 0.12116426 -0.01729932 0.024842564 -0.17135052 -0.17637582 -0.067408614 0.2094144 -0.02353027 -0.03379277 0.09332169 -0.1288513 0.21363139 0.0049758274 -0.32879955 0.14011744 0.09888208 0.3115724 -0.017295523 -0.4277892 0.29216376 -0.24872346 -0.08883494 -0.0036634726 -0.045775738 0.25888 0.17082055 0.1376727
changed. -0.03283683 0.049977724 0.031231733 0.045533102 -0.0103593 0.024542136 0.0072505707 0.039828118 -0.014267001 0.006555832 -0.0016109104 0.0066605173 0.02599109 -0.043044414 0.029326249 0.056519497 -0.0021414917 0.016279267 -0.031621594 0.010187656 -0.016624974 0.034360666 0.054833088 0.0030212423 -0.038970914 0.040671505 0.0150543675 -0.048947155 -0.017812908 -0.009642764 -0.033719126 0.027506249 0.028909381 0.030188864 0.04652271 -0.008016742 -0.03721687 -0.038365237 -0.021715524 -0.014103742 0.02764372 0.033607516 0.06389754 -0.018185377 -0.04813627 -0.016657384 0.030355548 0.022514082 -0.0236441 -0.020677727 -0.046057608 0.0073096794 -0.028590692 0.0029368205 0.0035998859 0.0075917407 -0.0298609 0.0020802047 -0.04470023 -0.0065195826 0.03212896 -0.020475356 -0.009741151 0.05875986 0.0068700016 0.003715279 0.0003836935 0.011358689 -0.0011075401 0.017150316 -0.0054029343 0.011428659 0.050310582 0.0054162466 -0.007668947 -0.0008137594 -0.03687306 -0.023538573 0.0029198613 0.03570403 0.004453214 -0.0049924245 0.021165963 -0.030125573 0.033521228 0.0007721343 -0.062084887 0.028213156 0.01830307 0.04926989 -0.011431339 -0.069564775 0.035108536 -0.036848627 -0.01865651 -0.0048409295 -0.013408569 0.04077465 0.037765447 0.023290232
been -0.26023158 0.31184417 0.150313 0.2703901 0.18343012 0.073224634 0.00063481304 0.26154685 -0.011130586 -0.12543628 0.1449248 0.057322048 0.083847605 -0.45535994 0.21497332 0.5356587 -0.07924751 0.11730145 -0.21220009 -0.045383867 0.08147439 0.3197226 0.2760162 -0.009443864 -0.47216576 0.45016688 0.101666085 -0.10217038 -0.08570178 0.30492762 -0.109460525 0.29310986 0.23220043 0.36828834 0.42460853 -0.11728927 -0.22906412 -0.23111911 -0.29866794 -0.20036839 0.11302685 0.41485667 0.33032703 -0.18317987 -0.2540899 -0.30183294 0.2080605 0.21887036 -0.12838618 -0.07675838 -0.2481186 0.059683163 -0.42842188 0.019487048 -0.05611689 -0.08748336 -0.2856544 0.019350804 -0.40981492 0.100074425 0.3093516 -0.10368278 -0.24657728 0.45690796 0.09434595 0.06806961 0.10039457 0.09680223 -0.103643276 0.0041343886 0.054548483 0.04123092 0.33931592 0.117287695 -0.0721484 -0.098826565 -0.16236861 -0.09945733 -0.14638226 0.19348383 -0.077399194 -0.13315086 0.181082 -0.27002668 0.253292 0.006424516 -0.5215611 0.21450688 0.023452727 0.32015792 -0.10597533 -0.54412943 0.1596846 -0.27247104 -0.44618636 0.11781015 -0.09334449 0.10506472 0.27835336 0.0704931
mob -0.0016637353 0.005031146 -0.001750598 0.002137221 -0.00422962 -0.0026504823 -0.00069897017 -0.00022617434 0.0045318883 -0.0007991198 -0.00015896685 0.005197146 -0.0016636674 -0.0015774478 0.0043915403 -0.0036491342 -0.003821433 -0.0011754355 -0.0029372566 0.005245755 -0.004982465 -0.0032809812 0.0034908599 -0.0008723248 -0.001041606 -0.0018007396 0.0005190937 -0.0051378263 0.0020861214 -0.0017349487 0.0020510128 -0.0037170507 -0.003672195 0.0041703577 0.004453695 -0.004671913 -0.0033881213 -0.004018591 0.0037327006 -0.002521332 0.0042708344 0.004316038 0.004370348 0.0007886905 -0.0055239145 -0.003527737 -0.0015097114 -0.004141004 -0.0015222629 0.0041517843 -0.0051139086 -0.0029679933 0.00075202005 0.0033836607 0.0021935336 0.0023991088 -0.003923458 -0.0036418054 0.0041081165 0.0043041003 0.0025280647 -0.0015380078 -0.0036878416 0.0031766875 -0.0009722779 -0.0026409316 0.0029157621 -0.0010341436 0.0025484264 0.002371752 -0.0010996852 0.0012608797 -0.0012578224 -0.002076203 0.0007175714 0.00043930137 0.0023185986 -0.0004187944 0.0007687539 0.0054547023 0.0029396405 0.0010458715 -0.0012941827 0.0029197684 0.004178861 8.527596e-05 0.0019540864 0.004824023 0.0014574588 -0.0012042751 -0.005071701 0.0022305623 0.0028127912 -0.0034946378 -0.0017493564 0.0014530079 0.00031964458 -0.0027739021 0.00118321 -0.0011417584
story -0.05914519 0.1714067 0.123296745 0.13159908 -0.04040884 0.067665 0.050848752 0.13413064 -0.038400088 0.0685343 -0.03203227 0.066021375 0.07710227 -0.20850709 0.11087956 0.2497824 0.0009263163 0.037992492 -0.12255813 0.07264732 -0.13269201 0.11157007 0.17215975 -0.0032862306 -0.16791803 0.12881066 0.08913217 -0.20177148 -0.1280243 -0.0056506083 -0.136193 0.12004738 0.13357629 0.105559215 0.19802874 -0.043404225 -0.13327967 -0.17352064 -0.16457821 -0.080964126 0.120024145 0.14243916 0.23242013 -0.0797398 -0.19924577 0.00074496487 0.07871793 0.08267518 -0.13941257 -0.10370138 -0.21627954 -0.013884707 -0.104382865 0.026388118 -0.00904806 0.116129905 -0.109786436 0.0310967 -0.16677785 0.0115005355 0.16680425 -0.07117315 -0.013615003 0.2141749 0.0078080683 0.06294165 -0.07710195 0.0871011 0.011285913 0.12108001 0.00042204422 0.01335697 0.17063922 0.056614533 -0.028696837 -0.019779406 -0.1311879 -0.14099878 -0.045722734 0.17948648 0.024639713 0.011319737 0.05395645 -0.0920788 0.14028537 0.032455508 -0.2051285 0.10202171 0.08024504 0.22513084 -0.050178915 -0.23604581 0.1804118 -0.15129268 -0.05726199 -0.01663251 0.010899501 0.15800807 0.1295685 0.111245
America. -0.041178524 0.13262856 0.098210104 0.07932395 -0.047312416 0.036702562 0.036437068 0.11199269 -0.018950602 0.046553683 -0.02104352 0.034111507 0.05055777 -0.14295185 0.08574707 0.17736001 0.0032842401 0.025866315 -0.08560648 0.042176817 -0.09480302 0.083256334 0.12953223 0.0035328374 -0.116268724 0.09065602 0.08436537 -0.13855968 -0.077058084 -0.011044089 -0.11087294 0.0835752 0.0963114 0.07302267 0.15294859 -0.03959902 -0.11080058 -0.11787469 -0.10574713 -0.05491728 0.0975798 0.09669399 0.1623129 -0.07043634 -0.13980588 -0.0033585439 0.03759997 0.05116591 -0.09776639 -0.06697612 -0.15538889 0.0020930022 -0.0719096 0.016993359 -0.016153969 0.079680964 -0.09101247 0.022158809 -0.09558162 -0.0005577777 0.11394942 -0.06548106 -0.0026184462 0.1483751 0.008266905 0.024182677 -0.054028023 0.05473184 0.011330834 0.068760164 -0.013254152 0.010360749 0.1162892 0.055134464 -0.03144307 0.0001644114 -0.10387577 -0.08062142 -0.02335398 0.121536784 0.023046693 0.015644342 0.03683641 -0.077127546 0.10333643 0.023381343 -0.13771361 0.077798866 0.05523239 0.15473498 -0.036442615 -0.17231344 0.11208501 -0.117998764 -0.048956577 -0.013482784 0.010255878 0.12768802 0.10077158 0.068835236
By -0.040871102 0.16840923 0.12379561 0.11920023 -0.036950864 0.052071143 0.07133188 0.14185262 -0.044064473 0.08899489 -0.057200663 0.10056858 0.09931265 -0.23233701 0.12099646 0.27075323 0.014153795 0.038009483 -0.13292702 0.09962206 -0.16168676 0.10957153 0.15307666 -0.015670367 -0.1966536 0.13300546 0.09559243 -0.22354591 -0.14954527 0.00424687 -0.13855937 0.1430174 0.15183842 0.090157315 0.21561931 -0.047037303 -0.13305305 -0.18979351 -0.19646358 -0.08011847 0.12130757 0.14025412 0.25440925 -0.08189904 -0.22370163 0.022152366 0.07697101 0.06588979 -0.17135149 -0.1156079 -0.24615714 -0.049097944 -0.09606947 0.027506392 0.01642841 0.15846284 -0.11553908 0.05368847 -0.18092576 0.0402995 0.19291897 -0.057955857 0.0028252916 0.21231262 -0.0023161864 0.08305354 -0.11251286 0.11036382 0.017061261 0.15520433 -0.0010356632 0.0021976759 0.17568748 0.07926408 -0.015137 -0.04594995 -0.12268211 -0.17834209 -0.05652804 0.200586 0.016832968 0.02579815 0.057138585 -0.09294014 0.15211922 0.06084452 -0.21662913 0.10114674 0.08185257 0.24118043 -0.06211192 -0.21871902 0.21810502 -0.16298616 -0.028725153 -0.023345616 0.025170265 0.17230909 0.10638109 0.13409075
great -0.029561093 0.18852006 0.11746215 0.11447067 -0.032373663 0.036241766 0.13264525 0.18380676 -0.04048193 0.106224 -0.068332195 0.10709823 0.10381979 -0.29881546 0.15346603 0.36775407 0.022305664 0.050914887 -0.20399603 0.14255837 -0.24869406 0.11880474 0.19486967 -0.015169943 -0.2873577 0.16928896 0.14172763 -0.2927974 -0.19414869 0.07299331 -0.24174419 0.27581012 0.23321332 0.11218464 0.25582203 -0.13139807 -0.18740453 -0.28369123 -0.3951608 -0.09548108 0.14384915 0.1448277 0.38899803 -0.14198528 -0.31405511 0.021351123 0.07368957 0.12739015 -0.2903639 -0.124131165 -0.41769844 -0.116188645 -0.12909979 0.06763746 0.03220755 0.26769915 -0.1435102 0.08519353 -0.287267 0.07274731 0.31177273 -0.065348014 -0.0026477242 0.27408326 -0.023969905 0.08129013 -0.24802606 0.18798421 0.051829804 0.22079001 0.024204893 0.017213462 0.2529587 0.12161604 -0.039005447 -0.11477967 -0.15298568 -0.23764975 -0.07968573 0.27192613 0.049500447 0.10358063 0.08854897 -0.09544022 0.15858991 0.12994811 -0.2813365 0.16627677 0.07074778 0.34553647 -0.13312966 -0.2421989 0.33188066 -0.19511305 -0.065084115 -0.024828736 0.049670644 0.3067374 0.14633463 0.20630439
might -0.14463343 0.2801838 0.1920325 0.3718589 -0.11299989 0.23427919 0.078844264 0.19507313 -0.14439459 0.13842107 -0.052013963 0.16633154 0.1737136 -0.28367653 0.1862446 0.36537364 -0.0061222874 0.11180424 -0.16929503 0.17318852 -0.20230173 0.18683891 0.2971004 0.031220391 -0.2387438 0.1765297 0.103019774 -0.33565864 -0.23451133 -0.13389114 -0.100314595 0.11734741 0.18268228 0.21510415 0.31912914 0.015001705 -0.17316641 -0.26021552 -0.10801753 -0.106873326 0.12149981 0.24024427 0.33948305 -0.080277435 -0.28710818 0.024157794 0.25459433 0.11035529 -0.1568174 -0.1772396 -0.32410026 0.024325788 -0.16724116 0.035701793 0.036824875 0.14400503 -0.1475698 0.044327065 -0.26920614 -0.029032644 0.23662847 -0.09442099 0.03275829 0.4259232 0.018040372 0.13258283 -0.0060557383 0.11913454 -0.017088158 0.19657369 0.0068792053 0.061568346 0.31314644 0.0153071545 0.009022045 -0.0037426753 -0.23191622 -0.2249315 -0.03904456 0.25368118 0.033929545 -0.043897472 0.0838223 -0.12238505 0.23429847 -0.011346521 -0.3606168 0.10707205 0.10982003 0.347374 -0.015532779 -0.44639724 0.32155454 -0.21314476 -0.04282511 0.037114378 -0.052426547 0.22264037 0.17912766 0.2476285
be -0.14150663 0.37879607 0.25209028 0.32972646 -0.15064363 0.13378768 0.0226022 0.34192008 -0.005697677 0.008479971 0.032327257 0.037455264 0.008688831 -0.23809487 0.076861456 0.27557257 -0.09424221 0.028420275 -0.18576188 0.032945525 -0.11600288 0.35044643 0.52427924 0.20754482 -0.13465513 0.27976587 0.12551531 -0.24332261 -0.25755656 0.012923532 -0.20826933 0.1973361 0.09910976 0.3389902 0.3799716 -0.14355601 -0.34159636 -0.26418963 -0.21113752 -0.29195747 0.17101353 0.17200884 0.3363404 -0.05097301 -0.38117853 -0.17320932 0.13753529 0.15009232 -0.007732041 -0.1376926 -0.11818228 0.0692011 -0.30584806 0.018539788 -0.07025751 -0.013109189 -0.03323972 0.17881449 -0.1451636 -0.092942044 0.19867174 -0.24299423 -0.27044365 0.43993866 0.029038686 0.0060342 -0.03157474 0.14604503 -0.144576 0.07013291 -0.056906343 0.012855037 0.35091504 0.104862876 -0.25907135 0.15148515 -0.19337185 -0.042818993 -0.028598158 0.21393807 0.11549602 -0.12164461 0.118962415 -0.14417237 0.30663347 -0.048953176 -0.35279402 0.17671312 0.10518161 0.3401743 -0.027641146 -0.5337089 0.27454835 -0.21819942 -0.21418652 0.009359835 -0.13144295 0.33637142 0.28151795 0.049058292
taken -0.091659725 0.23607898 0.1640325 0.16126534 0.0030086567 0.068233885 0.065395534 0.20734175 -0.04746562 0.074313655 -0.010458254 0.09987869 0.10141213 -0.34344828 0.15210187 0.38365406 0.0033337562 0.05331322 -0.17475249 0.083895795 -0.15002814 0.17100051 0.22326007 -0.018908318 -0.28502864 0.2370204 0.1342755 -0.24370217 -0.1548786 0.038964212 -0.18206371 0.18471983 0.1999653 0.17077842 0.30873054 -0.08618788 -0.18129432 -0.23863752 -0.2414832 -0.11844527 0.16624166 0.24519332 0.32792044 -0.13747293 -0.26145086 -0.048905373 0.113593556 0.1114423 -0.1963884 -0.12772459 -0.30308798 -0.020159129 -0.19689834 0.04006139 -0.027802689 0.13178496 -0.20411082 0.035096813 -0.25263077 0.045964144 0.25420612 -0.101286344 -0.045868065 0.3226729 0.031232573 0.09132192 -0.09187164 0.13681404 -0.017245805 0.14296612 0.012940331 0.0007071871 0.2475624 0.09322156 -0.05155931 -0.04167275 -0.17773277 -0.18887831 -0.088129744 0.24747838 0.024394881 -0.000719956 0.07322983 -0.17775404 0.21138051 0.049178448 -0.3159091 0.16579702 0.10343546 0.3149921 -0.07259844 -0.35274896 0.23053935 -0.23270118 -0.13000172 0.012062038 0.027884953 0.19015452 0.18689455 0.15223508
place -0.0560617 0.21646439 0.16220567 0.10932743 -0.065253854 0.031542778 0.08941624 0.17323342 -0.035329767 0.093875155 -0.046738744 0.076342076 0.08478139 -0.27305135 0.15188345 0.34820223 0.025486622 0.036811367 -0.16768664 0.101630814 -0.19744267 0.13345636 0.18410547 -0.010931084 -0.24735095 0.15277883 0.15521081 -0.26025656 -0.16131616 0.013241429 -0.22015436 0.1934382 0.19407691 0.11256674 0.26093724 -0.09149705 -0.17571504 -0.21576662 -0.26495904 -0.085708976 0.17502251 0.15551051 0.30111897 -0.13674314 -0.25285417 -0.0008618352 0.043363802 0.10495126 -0.21595512 -0.13090776 -0.29840866 -0.03825622 -0.124888904 0.045452382 -0.019655386 0.18059622 -0.17584126 0.048100907 -0.19922307 0.015967311 0.24048294 -0.07387319 0.02039747 0.2430693 -0.0022647886 0.05535286 -0.15237023 0.13439849 0.032072928 0.13440514 0.008063403 0.024379635 0.19419214 0.11445344 -0.044037968 -0.019183265 -0.15830794 -0.17455609 -0.063931786 0.22611003 0.031329487 0.06598588 0.062025994 -0.12271956 0.1610937 0.08104315 -0.25311458 0.13418485 0.0870701 0.28843147 -0.08699687 -0.25221533 0.22943568 -0.21309705 -0.07753144 -0.034243315 0.040385652 0.22335945 0.15835758 0.14047462
hero -0.03159247 0.078384876 0.05299149 0.047532104 -0.0088732 0.02627928 0.021177324 0.05502497 -0.012821813 0.033226464 -0.018045938 0.029355874 0.041876387 -0.08529005 0.05738831 0.11377863 -0.0029184981 0.013664108 -0.05088165 0.023382347 -0.055142965 0.04728103 0.06284712 -0.0025923308 -0.07248584 0.054658983 0.03879932 -0.08304028 -0.04458418 -0.0059497682 -0.057242576 0.053385258 0.057811525 0.039589852 0.07812359 -0.012721923 -0.052692994 -0.07451484 -0.06541814 -0.025331717 0.05151226 0.05674267 0.10799877 -0.039392047 -0.084995046 -0.0070521883 0.039686114 0.02736306 -0.06529336 -0.045985863 -0.10000476 -0.0052588354 -0.03280536 0.0003862109 -0.0018856939 0.047982164 -0.05461706 0.0063598664 -0.07724491 -0.0014119638 0.0734104 -0.024768662 -0.006912219 0.084673226 0.007446922 0.026075784 -0.028931148 0.03525797 0.01573739 0.04663697 -0.0036591776 0.008841011 0.06430644 0.026405564 -0.0021949003 -0.017244058 -0.063545376 -0.0628803 -0.009092384 0.07459351 0.0032108305 0.0034496828 0.02879453 -0.045893785 0.053063314 0.01855611 -0.09504914 0.040279184 0.030039493 0.09490206 -0.022733903 -0.10055649 0.06653745 -0.067416936 -0.01913512 -0.015918244 0.002666166 0.06959139 0.05926648 0.044481065
in -0.03914725 0.13489962 0.13095115 0.05547524 -0.1659413 -0.013571723 0.1661452 0.1475075 -0.09641802 0.21889238 -0.21795337 0.25869834 0.13849054 -0.31440815 0.22117749 0.44144556 0.1591497 0.052311745 -0.13805445 0.27645466 -0.3778 -0.064656265 0.105141185 -0.13025399 -0.3722559 0.090129696 0.21026324 -0.4462232 -0.20151158 -0.067399755 -0.24902444 0.23694985 0.17283933 -0.022099797 0.27840456 0.015484437 -0.1549292 -0.20937301 -0.30283183 -0.022498038 0.23772182 0.06431085 0.30721137 -0.15837525 -0.25369164 0.16886893 -0.030151283 0.051374063 -0.42427158 -0.18040207 -0.4237669 -0.14290696 0.035697352 0.045379166 0.10742013 0.36083165 -0.25389662 0.089606486 -0.25582007 0.11658954 0.27182722 -0.016314607 0.25882876 0.15871526 -0.09200089 0.14046028 -0.25712702 0.24099524 0.11077357 0.2520891 -0.06919923 0.08974919 0.12413872 0.19164547 0.18139657 -0.060212918 -0.17032918 -0.2817777 -0.09580089 0.3725728 -0.076496035 0.12090587 0.07396894 -0.058397733 0.051470924 0.1943937 -0.25785312 0.11678348 0.12991239 0.29790282 -0.11233625 -0.12854211 0.39961675 -0.2747657 0.15407622 -0.10179584 0.03656748 0.30690643 -0.010071861 0.26109543
heart. -0.02789298 0.05616813 0.04691459 0.050562385 -0.023159578 0.024504388 0.018283563 0.03950418 -0.015865235 0.028503634 -0.01917316 0.020352816 0.02725219 -0.06382608 0.041328263 0.07556732 -0.0019131174 0.013709392 -0.03390843 0.027578004 -0.042117786 0.033698224 0.052229676 0.0046254434 -0.052256305 0.036428448 0.029477723 -0.06364655 -0.038477022 -0.013225106 -0.037609898 0.032541554 0.03908468 0.029716017 0.060529035 -0.008644556 -0.03554661 -0.050175402 -0.042390745 -0.021531424 0.03568394 0.04366295 0.07297847 -0.028487347 -0.06396905 0.004918799 0.028081404 0.02775066 -0.043406725 -0.0392489 -0.065706395 -0.0015916838 -0.023194991 0.0006901301 0.0054363194 0.02982001 -0.03565501 0.008370516 -0.054388754 -0.008984753 0.05070025 -0.013341834 0.0025342347 0.06456482 0.002672932 0.020240454 -0.020784061 0.02349119 0.008133357 0.03611457 -0.00257303 0.008166084 0.05300784 0.016528683 0.0010357571 -0.005107438 -0.04901729 -0.046721425 -0.010852363 0.05148351 0.0033062722 0.005552834 0.021063259 -0.03117709 0.042175744 0.0058445237 -0.061720032 0.024301555 0.02314898 0.067280084 -0.010636263 -0.07988903 0.060204383 -0.052043684 -0.011204707 -0.013017522 -0.007081651 0.05304849 0.03359889 0.043007053
most 0.05470302 0.14673686 0.11076001 0.040107448 0.022411346 -0.014894757 0.16173835 0.20665948 -0.041363 0.14871645 -0.07962187 0.16396415 0.092946954 -0.36883518 0.11175894 0.36151558 0.03944338 0.017414197 -0.23200245 0.1697438 -0.29247218 0.11663526 0.15317404 -0.064047955 -0.3189461 0.20734689 0.15496999 -0.2873549 -0.24580972 0.12875682 -0.2547857 0.28479642 0.27518266 0.08795996 0.2968238 -0.16073434 -0.21946801 -0.31557602 -0.47168136 -0.13343367 0.18837954 0.17763966 0.40178454 -0.12547848 -0.34986526 0.06689465 0.059988923 0.09051519 -0.32992938 -0.12374225 -0.45307553 -0.20285048 -0.17960833 0.087003246 0.036631703 0.3572096 -0.14014778 0.14067987 -0.29265514 0.16094664 0.36968893 -0.08173851 -0.02323468 0.24835256 -0.022029292 0.16649894 -0.35429278 0.2490749 0.0073721358 0.3234746 0.031318583 -0.07700226 0.27659535 0.16022237 -0.07499435 -0.1559149 -0.12829211 -0.33081883 -0.13794574 0.35866562 0.068633676 0.15040533 0.053350143 -0.15711798 0.21634257 0.16647905 -0.2569315 0.19388193 0.115119494 0.39108893 -0.16211587 -0.2126016 0.3717529 -0.22114083 -0.03330852 -0.016404467 0.17215349 0.29764 0.12557065 0.22982554
history -0.018164068 0.07340829 0.0561405 0.04574054 -0.016398499 0.016337445 0.022445949 0.061011676 -0.019167716 0.03611457 -0.012051979 0.026448617 0.03637412 -0.087602034 0.048990007 0.11059669 0.0029821568 0.012922417 -0.05487444 0.032149423 -0.066687845 0.051597953 0.071607426 0.0021343522 -0.0772612 0.05507162 0.046581876 -0.082866386 -0.057943586 -0.0011035993 -0.0716514 0.060590908 0.06513574 0.036879316 0.09232185 -0.02928622 -0.06777324 -0.08053095 -0.078604236 -0.029843213 0.057443477 0.0633778 0.11167939 -0.04415303 -0.0918155 0.0057117697 0.022401674 0.028465398 -0.066691786 -0.039961733 -0.10273256 -0.008152008 -0.046555333 0.0064712022 -0.0032447092 0.055114612 -0.05456967 0.014928138 -0.070456594 -0.0006964271 0.07783057 -0.030867053 0.0029709172 0.08933499 0.0049305325 0.01776101 -0.047761492 0.036300316 0.007700669 0.057690177 0.0015014716 0.006077924 0.073393 0.030690277 -0.016951349 -0.004798209 -0.05922231 -0.057666365 -0.014226117 0.08041428 0.014713408 0.015290303 0.022968411 -0.04152433 0.060623292 0.021591969 -0.08660652 0.04516889 0.029757857 0.09661139 -0.024981532 -0.09966599 0.07356316 -0.06812947 -0.021346455 -0.014245863 0.014573557 0.07634415 0.05316919 0.049313933
movies -0.021793678 0.12549734 0.10251832 0.07951515 -0.03566895 0.028721645 0.052399714 0.112903416 -0.033516098 0.07779717 -0.025837984 0.07654896 0.06054185 -0.17919333 0.06921932 0.19248699 0.018042183 0.027898407 -0.09757901 0.07325664 -0.13719472 0.087300375 0.11533009 0.0016120271 -0.14217027 0.10241024 0.07521993 -0.1616393 -0.1228066 0.0013036395 -0.11949557 0.0907982 0.12291321 0.0696256 0.16735473 -0.042850334 -0.11690658 -0.13960193 -0.14177151 -0.065145634 0.117182344 0.11405328 0.18694992 -0.06910443 -0.16656001 0.02347172 0.04325372 0.051730208 -0.12611026 -0.088578194 -0.18140727 -0.03632824 -0.08923684 0.034889076 -0.0024159597 0.116627865 -0.09330758 0.04639866 -0.118168175 0.026669225 0.15120263 -0.053465147 0.008210396 0.15188478 0.0011396505 0.060501564 -0.10405016 0.08460119 0.003130841 0.11617444 0.009735355 -0.01715421 0.12897776 0.06964532 -0.035125084 -0.015851032 -0.09619437 -0.13457608 -0.044093717 0.15824583 0.017091794 0.032082744 0.02411187 -0.08527995 0.13168016 0.04740387 -0.14037496 0.08323457 0.08102887 0.17966928 -0.048467588 -0.16934292 0.1526976 -0.13115866 -0.02594867 -0.018115822 0.04035111 0.12598202 0.07732604 0.09605686
remain -0.03410411 0.10438388 0.078299046 0.07522186 -0.035904314 0.0335575 0.026206117 0.07852155 -0.024399802 0.044971205 -0.011163199 0.041409787 0.041961968 -0.1075589 0.060659166 0.14222686 0.00971323 0.021475969 -0.061084755 0.04676025 -0.08422324 0.061426055 0.10241267 0.0042980155 -0.086316645 0.065869495 0.052663516 -0.11349963 -0.06768349 -0.017886616 -0.08419753 0.062423453 0.074337155 0.0594145 0.11676118 -0.031506952 -0.08389155 -0.08849743 -0.076130405 -0.045051984 0.07628602 0.07833756 0.124894604 -0.053362593 -0.107221775 0.0006121609 0.03311529 0.043177374 -0.06721178 -0.057246976 -0.11420206 0.0028503104 -0.05822616 0.016228464 -0.007998146 0.055199374 -0.06632017 0.02306698 -0.07918894 -0.0013665744 0.09547624 -0.04003784 0.0054134014 0.1242377 0.0068503725 0.025614291 -0.04683894 0.04439204 7.591121e-06 0.06082014 0.004334527 0.0045245015 0.09256699 0.03865499 -0.020857034 0.0069441637 -0.07400695 -0.06474727 -0.01819151 0.09731631 0.023754178 0.010177209 0.025282376 -0.06097332 0.07922601 0.021209236 -0.10748258 0.05854683 0.045003626 0.11956638 -0.029272627 -0.13251321 0.094059266 -0.09138077 -0.038576882 -0.0071005933 0.0043364163 0.085974656 0.07403072 0.059269745
among 0.0014105733 0.03199582 0.028283158 0.02643063 -0.011871308 0.004626175 0.012331623 0.034197334 -0.01206038 0.024591591 -0.010740582 0.019499332 0.012302508 -0.04320798 0.013683238 0.048580363 0.00230381 0.0030457182 -0.026618917 0.02796731 -0.03358671 0.025630673 0.026482087 0.001674473 -0.033954017 0.02149152 0.020734139 -0.043866936 -0.040610723 -0.0028898125 -0.029340953 0.028921422 0.029630795 0.019200938 0.04007503 -0.007900757 -0.03421152 -0.038967222 -0.039729126 -0.022739436 0.03292019 0.030734029 0.04395224 -0.013416418 -0.041958254 0.0129650775 0.012965602 0.016168782 -0.03244602 -0.021280797 -0.045017768 -0.017485097 -0.022023335 0.015434915 -0.0011694205 0.036882475 -0.018186422 0.016005855 -0.033970006 0.013557935 0.040696375 -0.018928284 0.0025511978 0.040645108 0.0024837034 0.025071828 -0.030886704 0.025592564 -0.005316824 0.03571227 0.0019911097 -0.0024217905 0.03854443 0.021406 -0.009054246 -0.008015587 -0.025478791 -0.035737216 -0.019013219 0.04459674 0.0129190115 0.00989996 0.0025192655 -0.018166337 0.030118564 0.008033157 -0.033063233 0.024901241 0.021749407 0.048500616 -0.011924345 -0.040058404 0.04656142 -0.03146341 -0.008499303 -0.0032957466 0.015247249 0.030802526 0.014516255 0.029218063
films -0.0125429565 0.018856894 0.009942889 0.01557001 -0.008366727 0.001224484 0.0012163975 0.013672103 -0.0030486004 0.002564769 8.766027e-05 0.0073414925 0.0026901788 -0.021456186 0.014910964 0.03094804 3.3965793e-05 0.0023971496 -0.01541268 0.00042009517 -0.014716859 0.006236267 0.0144504905 0.002490644 -0.022108953 0.017332997 0.007696291 -0.017288178 -0.0124783525 -0.005947779 -0.014462609 0.013892407 0.01126667 0.0123055475 0.022257647 -0.0032703627 -0.01504426 -0.019129716 -0.016088117 -0.006966095 0.013830561 0.017761206 0.024456805 -0.009726045 -0.013038614 -0.009814108 0.0035789907 0.003006908 -0.008679042 -0.0108725075 -0.020389676 0.0036160618 -0.012063144 -0.00092028227 -0.0063626287 0.012446254 -0.013707959 0.0034090637 -0.011638149 -0.00047999577 0.012574201 -0.012207334 0.0013772828 0.02418291 0.0065755975 0.0068334052 -0.0020182584 0.012640009 -0.002843592 0.0029830218 -0.00046148337 0.009919441 0.012270065 0.003623485 0.0024949163 -0.0034401948 -0.015546473 -0.007939758 -0.008500946 0.013678755 -0.0015599914 0.00046582756 0.0071747974 -0.01191792 0.010765875 0.00757581 -0.019901251 0.013931928 0.010183152 0.021112345 -0.007391614 -0.028592335 0.014405795 -0.015985733 -0.0091409795 -0.00556621 -0.0001994163 0.016637813 0.018493772 0.009890003
all -0.02419109 0.18427835 0.1610526 0.06906831 -0.02416641 0.0071230396 0.11576936 0.18640736 -0.077745765 0.14295015 -0.039271694 0.12446817 0.09588209 -0.32105082 0.13180599 0.37487414 0.054754928 0.061425682 -0.15455246 0.14070535 -0.27402884 0.12460488 0.16258107 -0.06387072 -0.24996305 0.16113155 0.2033009 -0.25412562 -0.16539927 -0.006263704 -0.28650242 0.18914105 0.26609674 0.081602134 0.27921766 -0.1297357 -0.21718343 -0.24255177 -0.2788847 -0.08520949 0.20526406 0.19765687 0.36254188 -0.15615751 -0.24485843 0.028435841 0.028787674 0.08662007 -0.2503468 -0.15406792 -0.37537757 -0.06418341 -0.15118027 0.059459925 -0.023353321 0.24445675 -0.22732033 0.037789114 -0.21163188 0.051017925 0.30194053 -0.113009885 0.03307414 0.2636882 0.03289719 0.08524256 -0.23680837 0.18117495 0.01888147 0.20338584 0.026115015 -0.052943483 0.24250749 0.13142464 -0.082417265 -0.046110727 -0.18161704 -0.2320913 -0.088382654 0.29856414 0.069478884 0.13056985 0.031921465 -0.17938681 0.21829912 0.09694629 -0.20900314 0.17888558 0.13863224 0.31837797 -0.11456744 -0.2817594 0.22787623 -0.24104074 -0.054460626 -0.013325034 0.1310572 0.21654524 0.17457719 0.18522
It -0.12659927 0.18638764 -0.040441487 0.181112 0.1569909 0.13813107 0.022943486 0.13639916 -0.0120003745 0.03624284 0.0015813662 0.008922943 0.028676463 -0.476472 0.13780074 0.35446805 -0.12243965 -0.023855532 -0.27674386 0.07614229 0.0682178 0.12382815 0.35103387 -0.14053039 -0.33909166 0.29820648 0.06309585 -0.31511855 -0.073594145 0.08150514 -0.103212886 0.29215747 -0.0014192058 0.18821302 0.19898382 -0.21330012 -0.084652945 -0.49412724 -0.5899703 -0.1310589 -0.00069168984 0.10523907 0.48018405 0.023229502 -0.39140415 -0.19698572 0.3713859 0.26964363 -0.1549618 -0.10735362 -0.27132165 -0.19265413 -0.22244991 0.058436655 -0.062186167 0.15592156 -0.107029505 0.044538144 -0.42520475 -0.05998925 0.27684826 -0.14152576 -0.35538238 0.4996055 0.03932417 0.13513693 -0.033809114 0.2680131 -0.117275305 0.15272725 0.059789803 0.20647886 0.35795856 -0.1507625 -0.08336754 -0.17589097 -0.25872362 -0.22336254 -0.16478238 0.33134928 0.16924565 -0.16145685 0.10232507 -0.09215758 0.13108204 0.056500405 -0.4805839 0.12543516 0.048166554 0.39678314 -0.0660212 -0.30443653 0.38018805 -0.11291115 -0.24982384 0.02941892 -0.058488663 0.35575232 0.335385 0.23031321
took -0.08994524 0.24524963 0.18583313 0.14445087 -0.10072278 0.028681373 0.15596135 0.2138304 -0.027192684 0.08786183 -0.15070176 0.1355382 0.1959787 -0.30767617 0.26544827 0.49107775 0.025943749 0.046378028 -0.22670312 0.17183898 -0.26644573 0.15455903 0.13198482 -0.017734302 -0.37665114 0.16546807 0.18532062 -0.34895682 -0.2368713 0.045718484 -0.23818342 0.24477898 0.24907522 0.13587286 0.31636795 -0.050552767 -0.152409 -0.23593678 -0.3358015 -0.07941984 0.20720614 0.17754357 0.31688905 -0.19045421 -0.3099177 0.05346902 0.046991333 0.07062938 -0.365339 -0.14585122 -0.46099353 -0.06523504 -0.096157156 0.031337388 0.061523028 0.28890902 -0.2051573 0.07243192 -0.29128096 0.087592795 0.2889628 -0.0003789053 0.12855117 0.24495941 -0.09309363 0.068879224 -0.2248165 0.15686436 0.14404504 0.21626808 -0.0227343 0.08987542 0.18048462 0.2023361 0.07900713 -0.08721172 -0.1397087 -0.24344286 -0.07637863 0.23512276 -0.08074698 0.09248577 0.13102578 -0.07269905 0.13051784 0.13103643 -0.3441909 0.11811024 0.031081317 0.33601496 -0.11777131 -0.2501238 0.33224043 -0.24198411 -0.0573974 -0.08482269 -0.0036630942 0.31545046 0.116092324 0.17074427
enormous -0.05122028 0.15852445 0.111531444 0.10506492 -0.027800068 0.045391433 0.056207974 0.13717782 -0.025909813 0.061404046 -0.029054051 0.06746258 0.08137824 -0.1948286 0.105963975 0.23674403 -0.0022861105 0.03100543 -0.12235171 0.06790223 -0.121090144 0.10550077 0.14757134 -0.0065476033 -0.15867175 0.13335955 0.08255309 -0.17695992 -0.120633334 0.0070454828 -0.1342604 0.11803535 0.13107322 0.09078041 0.18765602 -0.050843343 -0.13203728 -0.16475733 -0.16974735 -0.07158265 0.10996661 0.12681434 0.22866492 -0.07589861 -0.19698244 0.00010961436 0.06905449 0.069907606 -0.13583228 -0.08872438 -0.21515633 -0.023623515 -0.09960886 0.016292386 0.001964805 0.11546526 -0.11056207 0.031163251 -0.16066647 0.024736835 0.16849883 -0.067402534 -0.018913018 0.19895957 0.002740051 0.057074502 -0.087466225 0.08601156 0.01136498 0.11917052 -0.0034035768 -0.0009851918 0.16752678 0.060108185 -0.030775905 -0.032326266 -0.11982207 -0.13367637 -0.03951253 0.16782369 0.02480275 0.0153757455 0.046172358 -0.096125975 0.13264126 0.04538357 -0.18757553 0.09424337 0.07132863 0.20528907 -0.064236455 -0.21548371 0.16996092 -0.14210483 -0.05400492 -0.015063565 0.027567321 0.15820901 0.11451443 0.09946372
power -0.031812333 0.21635331 0.17410389 0.10244637 -0.06176192 0.023106217 0.100876085 0.21440367 -0.044806242 0.11262131 -0.054137655 0.108826816 0.09572005 -0.30347374 0.13638757 0.3579148 0.031074027 0.038129643 -0.18758114 0.12670197 -0.23302089 0.13983399 0.19596706 -0.004230505 -0.2621198 0.1816199 0.1571488 -0.27498478 -0.19915901 0.02952156 -0.23581043 0.19380614 0.23254783 0.1252861 0.29707548 -0.104384445 -0.20186493 -0.234552 -0.29004133 -0.11903599 0.2074895 0.19194749 0.31370223 -0.14237222 -0.28292793 0.03211322 0.03671367 0.08408416 -0.24525887 -0.13531467 -0.3478283 -0.065731846 -0.15100348 0.059258685 -0.010054886 0.22906241 -0.16320932 0.08218267 -0.20855768 0.064091176 0.27259403 -0.10043094 0.017764378 0.2589366 -0.00043801955 0.084491566 -0.20823653 0.16075672 0.02262296 0.20132998 0.0070206258 -0.027801808 0.22763073 0.14348823 -0.06556496 -0.035557978 -0.15364096 -0.2219305 -0.082750976 0.26464126 0.03367562 0.080888204 0.05094659 -0.14934844 0.20659775 0.09507412 -0.24760817 0.16349022 0.11688731 0.31377795 -0.10029999 -0.28201765 0.26710698 -0.23627336 -0.074017495 -0.032822195 0.07735405 0.25033197 0.14602457 0.14964299
effect -0.014650019 0.05392125 0.03108923 0.049451295 -0.0046864892 0.027363915 0.025972957 0.043406766 -0.018971521 0.035632253 -0.015435121 0.025678681 0.033851057 -0.079443455 0.041181646 0.08504284 -0.00031344275 0.019731509 -0.04476171 0.039017864 -0.056858946 0.03203653 0.05923543 -0.008780829 -0.06434134 0.047307655 0.024042014 -0.082157075 -0.05519094 0.004126801 -0.053563256 0.058048874 0.053745665 0.025436634 0.066818155 -0.020067954 -0.049443603 -0.08140034 -0.083727054 -0.027237728 0.03662539 0.044514284 0.106801 -0.029695278 -0.08972419 0.008660901 0.038361587 0.03631289 -0.06491362 -0.036026616 -0.09439935 -0.018748678 -0.026407631 0.008611354 0.010491202 0.053943347 -0.03787959 0.010735326 -0.08076377 0.0042721145 0.07566166 -0.01195158 -0.00822242 0.08634671 -0.0014750569 0.032973118 -0.045824353 0.039647378 0.0038334988 0.052238874 0.009891999 0.005088477 0.07736966 0.021013709 -0.010855271 -0.02818794 -0.04744852 -0.061399926 -0.009939092 0.072441764 0.021017391 0.014893259 0.019343158 -0.032895092 0.053779818 0.022094287 -0.08328593 0.034902237 0.029335588 0.088771954 -0.036119062 -0.07377892 0.08369633 -0.044925943 -0.010169702 -0.0070174257 0.01243773 0.06466269 0.037791573 0.060764965
this -0.05203126 0.21094899 0.09695797 0.047736704 -0.01433409 0.010832557 0.047264487 0.2630145 0.0029325653 -0.016132008 0.00129749 0.010808046 0.014811196 -0.24763176 0.1190163 0.2951582 -0.042817444 0.05317067 -0.1929086 -0.002876524 -0.1421418 0.1442168 0.38959682 -0.0016638599 -0.16845395 0.273973 0.19020386 -0.18478708 -0.095849365 0.10274051 -0.28265846 0.25855467 0.18283749 0.18411827 0.26578525 -0.19747226 -0.28616327 -0.28686655 -0.4005217 -0.16858035 0.16194263 0.16454391 0.41942674 -0.120245494 -0.3311486 -0.12718602 0.09159267 0.13475767 -0.1562425 -0.02755047 -0.36224258 -0.021316232 -0.23834631 0.041609995 -0.005761042 0.16634378 -0.12352968 0.022719255 -0.21988742 0.029849367 0.22221711 -0.22532815 -0.17333336 0.32732493 0.048395105 0.010358435 -0.16925818 0.1631118 0.015277128 0.15866463 -0.03873312 -0.007237549 0.3378321 0.062328957 -0.15619636 -0.061509848 -0.1798449 -0.12434158 -0.04519258 0.22856727 0.116693504 0.03080569 0.06895265 -0.16246158 0.15395018 0.080748156 -0.23370884 0.19790205 0.058118924 0.31801218 -0.12745653 -0.35490808 0.25263864 -0.17459957 -0.19064261 -0.024920894 0.054131772 0.39738506 0.29490307 0.09209412
In -0.037677106 0.19482279 0.14905605 0.168658 -0.04991131 0.07090231 0.13529982 0.17538655 -0.065460116 0.1658312 -0.10681126 0.17713758 0.14823513 -0.31237906 0.1650323 0.3624124 0.0352908 0.039958686 -0.18241684 0.19200292 -0.26322478 0.122256294 0.15975174 -0.026405172 -0.2964361 0.15000103 0.10668777 -0.3341978 -0.24471137 0.024944158 -0.18351324 0.22504224 0.20818925 0.089774385 0.27221784 -0.046315875 -0.16057539 -0.2799733 -0.3111791 -0.08774042 0.15099955 0.15627682 0.36738232 -0.11015341 -0.31883806 0.07615666 0.11469476 0.090380095 -0.2807153 -0.16802476 -0.37147915 -0.1268501 -0.08847675 0.047175854 0.070157886 0.27206263 -0.1473196 0.098684125 -0.2867259 0.08816613 0.3061376 -0.031054469 0.037926644 0.25983614 -0.03886839 0.14768271 -0.21503936 0.1780331 0.034728054 0.25644234 0.015215931 -0.0011949809 0.22993316 0.123370916 0.021842182 -0.10897096 -0.15490583 -0.27907908 -0.087415636 0.3102644 0.019663297 0.070116565 0.08797697 -0.10789521 0.19794641 0.109514534 -0.3016911 0.13417743 0.11148234 0.35074925 -0.118246004 -0.24116895 0.34875253 -0.20764683 0.015812594 -0.021760343 0.048730943 0.23666164 0.09368863 0.22797363
case -0.0550319 0.17953649 0.12766422 0.146552 -0.053947575 0.079775214 0.05573034 0.14223891 -0.05496406 0.096791 -0.040453095 0.08836456 0.09329613 -0.21234863 0.11529491 0.25125536 0.0040196697 0.0483046 -0.12572567 0.091637716 -0.15697737 0.11095238 0.18523455 0.0044430336 -0.17167757 0.13094635 0.08793952 -0.21870477 -0.14208284 -0.025552923 -0.13626963 0.1314411 0.14408047 0.103810534 0.21355964 -0.046067465 -0.14164005 -0.18960704 -0.163421 -0.078082226 0.115290664 0.14524856 0.2629402 -0.084852055 -0.21984942 0.010647563 0.096181095 0.07960048 -0.14268164 -0.11365894 -0.2445454 -0.026699163 -0.10912483 0.02880029 0.0065456256 0.13144755 -0.119156726 0.04055735 -0.1763788 0.014566175 0.18691361 -0.07551639 0.0012629958 0.2326602 0.013452231 0.070242584 -0.08798051 0.09947525 0.0020484189 0.14015436 0.009246911 -0.0017159424 0.19642395 0.058021907 -0.032518964 -0.026645841 -0.14752972 -0.16151613 -0.039785344 0.19169003 0.041189075 0.020796407 0.05284432 -0.10125023 0.15903425 0.040005744 -0.21923575 0.11139877 0.08144927 0.23674841 -0.057957724 -0.2597665 0.20311166 -0.15911928 -0.038320374 -0.009852425 0.021323945 0.17399777 0.12627378 0.14214782
novel -0.018445645 0.07787482 0.04895346 0.03960425 -0.0045251087 0.014643145 0.035104044 0.062855214 -0.01129732 0.03655736 -0.022584142 0.03829556 0.048542313 -0.10975324 0.058269963 0.12960929 0.005554596 0.016796784 -0.06268035 0.04240081 -0.07067773 0.049803205 0.05210287 -0.01365957 -0.094521046 0.06715457 0.046537906 -0.08952304 -0.060509127 0.008180596 -0.061097536 0.065612555 0.073388085 0.033695232 0.08776217 -0.018153502 -0.048972975 -0.08524607 -0.09765839 -0.02855031 0.054775935 0.06532073 0.11121018 -0.049737927 -0.09525868 0.008657032 0.032459773 0.025810858 -0.08488969 -0.047328558 -0.11575847 -0.019499205 -0.036761865 0.003568449 0.0043037217 0.06779343 -0.066548124 0.016611153 -0.086246245 0.021771567 0.08701813 -0.010404983 0.0012168068 0.08699099 -0.0074564326 0.03642914 -0.05236692 0.04831461 0.015835177 0.06656267 0.00039126864 -0.00024963744 0.07050205 0.039652985 -0.0029443265 -0.028993657 -0.05573353 -0.08061666 -0.02821853 0.09076178 0.00084703125 0.015408181 0.029410506 -0.046225466 0.058356173 0.03264406 -0.09854961 0.048861448 0.031446513 0.10631076 -0.036479715 -0.091070026 0.083167575 -0.07330516 -0.022643669 -0.010152682 0.022983441 0.07095368 0.04837557 0.0538926
its -0.055080272 0.24366777 0.15999302 0.0145564005 -0.055917982 -0.027474247 0.08430159 0.23212321 0.010898158 0.031975344 -0.03448691 0.025370616 0.0700811 -0.26001087 0.17066811 0.37730974 0.01137653 0.03887319 -0.18647778 0.040064868 -0.20881881 0.13531789 0.24961121 -0.011138813 -0.235692 0.19890153 0.21276921 -0.23002854 -0.11939926 0.07282097 -0.32608402 0.24981733 0.2366392 0.11442909 0.28154063 -0.16184857 -0.25260207 -0.22488664 -0.35275537 -0.11541712 0.22990257 0.16074798 0.3630197 -0.19072561 -0.2890723 -0.054408953 -0.0126652075 0.10806401 -0.2484325 -0.08222552 -0.38166484 -0.015055678 -0.15490972 0.039524436 -0.025599174 0.20425043 -0.20428422 0.020237569 -0.1942747 0.031405922 0.24958742 -0.13942185 -0.022690203 0.2418055 0.010914184 0.0008445826 -0.21424554 0.14591883 0.08688599 0.1322597 -0.037621398 0.015375697 0.22772878 0.15521295 -0.09015427 -0.036957834 -0.16802658 -0.14274757 -0.04504567 0.2198335 0.045344774 0.103460036 0.07193476 -0.15896088 0.14923437 0.1188863 -0.22289467 0.18586494 0.077690944 0.29839125 -0.13957354 -0.29151946 0.20682009 -0.23447248 -0.13526888 -0.07613323 0.07580691 0.32736126 0.22848038 0.08628537
other 0.068620265 0.1539122 0.12812626 -0.09705146 -0.04466293 -0.1381952 0.16357651 0.2560729 0.0006167856 0.07783934 -0.046559516 0.08973718 0.01582611 -0.34642237 0.10854989 0.42101005 0.080107585 0.017756764 -0.22070162 0.10755387 -0.3095031 0.09031653 0.19404618 -0.04247331 -0.324703 0.22318725 0.2679561 -0.23885506 -0.17782852 0.16628966 -0.40082738 0.32359633 0.3007196 0.09241277 0.32854122 -0.24744098 -0.30078807 -0.24850406 -0.5273884 -0.14298864 0.2847908 0.1570492 0.35958838 -0.20909658 -0.30676422 0.012909881 -0.11466393 0.09761532 -0.33970013 -0.08413581 -0.45588133 -0.14733264 -0.19847366 0.10980117 -0.041590463 0.351192 -0.19372952 0.13698724 -0.20930247 0.15012129 0.34546113 -0.15674385 -0.00424784 0.1968887 -0.008479575 0.05603105 -0.42041022 0.26639238 0.047049843 0.23778878 -0.0055050245 -0.062238645 0.23425046 0.23999037 -0.14753233 -0.07645719 -0.103830405 -0.2300224 -0.1333861 0.31843242 0.07056306 0.21676317 0.034871005 -0.17343208 0.1793646 0.20788261 -0.17649536 0.23981065 0.1197681 0.36419323 -0.17693485 -0.19491349 0.29554623 -0.25647599 -0.12211604 -0.050735988 0.17938536 0.3826667 0.17207158 0.12264197
popular -0.0045328476 0.04014907 0.0413462 0.02917492 -0.007659129 0.007831112 0.02587387 0.040017962 -0.0072555137 0.027371906 -0.015667649 0.02715604 0.031087475 -0.06919374 0.034434725 0.072501086 0.010464404 0.009509214 -0.039977133 0.029925136 -0.055941194 0.031719856 0.03921612 -0.0027813322 -0.061429523 0.040946066 0.03432998 -0.060470153 -0.051777687 0.0035216275 -0.051193863 0.048992492 0.054426968 0.01969629 0.06177204 -0.017036572 -0.04852435 -0.051744986 -0.061991446 -0.01951183 0.04450505 0.04528478 0.07734668 -0.028915158 -0.06970955 0.020041589 0.0107563315 0.016428519 -0.05943073 -0.028364215 -0.08089064 -0.019917782 -0.031346004 0.010444473 0.0050440235 0.058132958 -0.034484807 0.02041816 -0.046816967 0.020573813 0.059798833 -0.01906738 0.0034607945 0.054858577 -0.0028472962 0.03194352 -0.046234686 0.030308655 0.012206748 0.049650688 0.0030719496 -0.007590331 0.051161513 0.03515578 -0.012139869 -0.010226434 -0.034321345 -0.054617554 -0.020318512 0.060372036 0.0040260907 0.017667385 0.007387151 -0.026432147 0.051363073 0.02203077 -0.04973198 0.037300475 0.024420803 0.07496367 -0.031463314 -0.056470238 0.06451298 -0.052036937 -0.0045913295 -0.005645992 0.02580154 0.05102038 0.022501078 0.037111606
such -0.1595514 0.28255647 0.15133686 0.23027836 -0.068385504 0.10818996 0.07401114 0.18454415 -0.041671757 0.046582688 -0.043339383 0.044562597 0.119215384 -0.28227746 0.22066097 0.40620795 -0.026451875 0.08847135 -0.19828004 0.086945936 -0.16365589 0.18987457 0.29901695 0.024525136 -0.27816758 0.18323976 0.14857179 -0.29932466 -0.14515042 0.009723026 -0.22543585 0.2610606 0.18621337 0.18437581 0.26281443 -0.10819849 -0.18373999 -0.28115994 -0.31660977 -0.09014137 0.11876463 0.17069091 0.4042258 -0.14645809 -0.31627747 -0.07448654 0.15737855 0.17825986 -0.22751303 -0.12608401 -0.3687956 -0.0005461614 -0.14637914 0.029042037 0.004697012 0.1468297 -0.17260411 0.015012336 -0.301636 -0.03166043 0.26770267 -0.081411764 -0.036266897 0.37962946 -0.002627416 0.014420021 -0.08640744 0.14364845 0.06567365 0.10959028 0.009830335 0.12895212 0.28356558 0.056980066 -0.028587645 -0.06627648 -0.21630165 -0.15771893 -0.023680493 0.20282948 0.056276303 0.021628212 0.13059904 -0.101698935 0.14409496 0.056651864 -0.37306783 0.14473836 0.016955787 0.34011307 -0.09675317 -0.36383674 0.28312978 -0.19712377 -0.14166552 -0.01965877 -0.05938946 0.3231433 0.23956925 0.18066923
